#include <math.h> 
 #include <string.h> 
#include "./include/k2c_include.h" 
#include "./include/k2c_tensor_include.h" 

 


void mnist(k2c_tensor* flatten_input_input, k2c_tensor* dense_1_output) { 

float flatten_output_array[784] = {0}; 
k2c_tensor flatten_output = {&flatten_output_array[0],1,784,{784,  1,  1,  1,  1}}; 
float dense_output_array[128] = {0}; 
k2c_tensor dense_output = {&dense_output_array[0],1,128,{128,  1,  1,  1,  1}}; 
float dense_kernel_array[100352] = {
-7.21544847e-02f,+6.28069565e-02f,+6.39873073e-02f,-5.42418435e-02f,-3.48291658e-02f,
-6.86984584e-02f,+7.46303126e-02f,-4.54719439e-02f,+3.47934142e-02f,-5.10749072e-02f,
-1.71446204e-02f,+7.23404065e-02f,+7.41144791e-02f,-1.73284486e-02f,+5.53541631e-03f,
-7.96577632e-02f,-1.98156275e-02f,+3.44169885e-03f,+8.10563043e-02f,+5.24921194e-02f,
-8.04754868e-02f,+1.02680176e-02f,+2.72619948e-02f,+7.23528638e-02f,-4.47320007e-02f,
+6.09240606e-02f,-2.28389353e-03f,-5.15012182e-02f,+3.62440124e-02f,+6.26495704e-02f,
+4.69657108e-02f,+6.48204014e-02f,-6.64883032e-02f,-3.59297544e-03f,+5.74164093e-03f,
+2.98215747e-02f,+3.19939032e-02f,-2.40665525e-02f,-7.79466927e-02f,-8.05573910e-03f,
+6.07889816e-02f,-6.14921600e-02f,+1.24749467e-02f,+6.05012253e-02f,+2.60814503e-02f,
+5.11886105e-02f,+1.51627958e-02f,-6.05458766e-02f,-4.79073115e-02f,-5.84408827e-02f,
+6.54636100e-02f,-6.58070371e-02f,+5.90386763e-02f,+3.10137868e-03f,+4.33120504e-02f,
-4.13866490e-02f,-5.44085950e-02f,+5.94706461e-02f,+4.39340994e-02f,-4.79182191e-02f,
-2.61839032e-02f,+7.09664896e-02f,-1.42275915e-02f,+5.43811694e-02f,-2.64334045e-02f,
+2.54169106e-03f,+1.81436986e-02f,+4.37134504e-03f,-4.19369973e-02f,-6.99703768e-02f,
-1.00946277e-02f,-4.02808078e-02f,+7.95532539e-02f,-6.61551952e-03f,-1.84081495e-03f,
-2.41278112e-03f,+4.20378894e-02f,-5.52112162e-02f,-2.70283110e-02f,-2.73239538e-02f,
+5.11050969e-03f,+7.08281994e-04f,+4.72521782e-03f,+8.08830634e-02f,+6.51061311e-02f,
-7.08103329e-02f,+6.51559234e-03f,+7.06763640e-02f,+7.33532086e-02f,-7.27885291e-02f,
-8.61681998e-03f,-6.59321174e-02f,-6.17860630e-02f,+3.16606462e-03f,+3.31073031e-02f,
-9.44001228e-03f,-6.21025711e-02f,+5.02903834e-02f,+3.84798869e-02f,+6.63726553e-02f,
+2.25802511e-02f,-6.42079115e-02f,-2.72867866e-02f,-7.45192692e-02f,+3.92374098e-02f,
+1.47867054e-02f,+1.85783803e-02f,-7.92802051e-02f,+5.93964085e-02f,-2.29402892e-02f,
-9.57207382e-03f,-3.66320014e-02f,+7.12663308e-02f,-8.04183185e-02f,+4.93135229e-02f,
+3.81645039e-02f,-5.32171652e-02f,+6.20150492e-02f,-3.14067304e-03f,-3.41618434e-02f,
-7.00388923e-02f,-4.55323569e-02f,-6.73056543e-02f,-7.92314932e-02f,-3.30759585e-02f,
-2.50858068e-03f,-8.09360221e-02f,-6.14221394e-03f,-4.34679724e-02f,+2.11642012e-02f,
+2.14828402e-02f,+5.05805090e-02f,+2.39077881e-02f,+4.59234416e-03f,-1.48218125e-03f,
+1.26056150e-02f,-3.57804969e-02f,-6.12439513e-02f,+2.84399465e-02f,-6.53239042e-02f,
-3.50916833e-02f,+2.27808878e-02f,+5.23551032e-02f,+1.56334788e-03f,-5.89455739e-02f,
+5.27856126e-02f,+2.81460807e-02f,+5.71326092e-02f,+1.07940361e-02f,+1.68841332e-02f,
-5.78473918e-02f,-4.84657250e-02f,-7.64971226e-03f,-4.21530828e-02f,+4.38401550e-02f,
-6.14289045e-02f,-7.34597817e-02f,+8.07835832e-02f,+5.07974625e-03f,+9.05618072e-05f,
-3.08941118e-02f,-4.11278829e-02f,+6.83105066e-02f,+4.25117537e-02f,+3.47342566e-02f,
+6.75699860e-03f,+7.97134712e-02f,-5.00892922e-02f,-5.50153740e-02f,-5.31235859e-02f,
-3.57522815e-02f,-3.02170813e-02f,+1.56413615e-02f,+6.21064976e-02f,-5.84044680e-02f,
-1.23380870e-02f,+3.55490148e-02f,+4.79127988e-02f,+3.44160199e-03f,-4.49530184e-02f,
+5.00375405e-02f,+2.96267569e-02f,+5.86066321e-02f,+1.45182833e-02f,+7.74623081e-02f,
+7.26997927e-02f,+3.69292647e-02f,-7.15754405e-02f,-4.14799973e-02f,+2.30199471e-02f,
+9.08970833e-06f,+3.38479802e-02f,-2.93100551e-02f,-1.15540922e-02f,+4.33576480e-02f,
-3.14731151e-03f,-8.13245028e-03f,+5.80982640e-02f,+3.64704877e-02f,+1.39903873e-02f,
-7.29125664e-02f,-5.14145419e-02f,+2.97502428e-03f,-6.75855950e-02f,+4.58616093e-02f,
+3.66474688e-02f,-2.40206718e-05f,+3.74009907e-02f,-2.13760361e-02f,+2.51776949e-02f,
+2.51799524e-02f,-1.19737759e-02f,-8.04090351e-02f,-3.08146141e-02f,-3.06193754e-02f,
+4.53113988e-02f,-8.97105783e-03f,-4.34146188e-02f,-7.60349259e-02f,-3.33319195e-02f,
+5.25068417e-02f,-3.53192538e-03f,-7.31068179e-02f,-5.96389174e-03f,+6.10764101e-02f,
-2.04992741e-02f,+1.97293237e-02f,+1.62705109e-02f,-5.52171692e-02f,+7.66250566e-02f,
-1.60419717e-02f,+6.00983277e-02f,-7.99822062e-03f,-3.56917717e-02f,-3.66155244e-02f,
-7.03294352e-02f,-4.32537422e-02f,+4.12093773e-02f,+2.45216638e-02f,+2.37927064e-02f,
-3.67523432e-02f,-1.01902410e-02f,-3.12217809e-02f,+4.94573787e-02f,-4.34260815e-03f,
+8.00057724e-02f,+1.15520805e-02f,-6.36231825e-02f,-7.81194046e-02f,-5.47766834e-02f,
+7.85860941e-02f,-4.40805331e-02f,-4.50346619e-03f,-2.85994262e-03f,-8.05667192e-02f,
+3.93194407e-02f,-4.01785076e-02f,-3.59033048e-03f,-1.75939649e-02f,-2.08146051e-02f,
-6.04644641e-02f,+5.65232411e-02f,+5.07936850e-02f,-5.95864281e-02f,+4.15282026e-02f,
+4.75809947e-02f,+4.45588604e-02f,+1.42891109e-02f,-6.39194846e-02f,-6.00427128e-02f,
-3.60398032e-02f,-7.09782913e-02f,-7.52719715e-02f,+2.31732428e-03f,-7.99008682e-02f,
-1.22988299e-02f,+3.15789059e-02f,+7.84445778e-02f,+4.12505046e-02f,-4.01980393e-02f,
-1.33629888e-03f,-6.92864805e-02f,+6.60662726e-02f,-6.42243922e-02f,+7.67461732e-02f,
-5.30132204e-02f,-6.13061637e-02f,+1.57218426e-03f,-2.58134790e-02f,+7.48236850e-02f,
-3.64513211e-02f,+6.35806695e-02f,-6.69188350e-02f,+7.24759474e-02f,+7.22170398e-02f,
+6.08436689e-02f,-1.40334591e-02f,+1.08604282e-02f,-3.74610722e-02f,-7.65020251e-02f,
-3.39677818e-02f,-7.58516192e-02f,-4.25976142e-02f,-2.26142667e-02f,-8.16772133e-03f,
-1.06385946e-02f,+3.79498452e-02f,+1.24180093e-02f,-7.86779150e-02f,+7.71959201e-02f,
+7.71268383e-02f,-5.16218692e-03f,-6.17453530e-02f,-2.25725546e-02f,+4.98148873e-02f,
-1.60921514e-02f,-2.84644514e-02f,+4.32763696e-02f,-1.80552229e-02f,+5.04489988e-03f,
-6.46611080e-02f,+2.70657092e-02f,+1.03724450e-02f,+8.08842257e-02f,-4.48450930e-02f,
+4.86178920e-02f,-6.22984469e-02f,-2.52214372e-02f,-4.27608117e-02f,+3.50234807e-02f,
-6.50836304e-02f,-2.33270228e-03f,+8.33353400e-03f,+4.99745980e-02f,-6.26207441e-02f,
+6.17490932e-02f,-2.09426843e-02f,+6.46151379e-02f,+6.83970973e-02f,-4.22758050e-02f,
+4.68839481e-02f,+3.00778449e-03f,+5.87232634e-02f,+4.08305749e-02f,-1.68830678e-02f,
+7.21561983e-02f,+4.93730381e-02f,+8.07882175e-02f,+6.27973005e-02f,+2.04212964e-04f,
+1.20529458e-02f,-5.61367720e-03f,+6.15659282e-02f,-7.97756314e-02f,+8.03106055e-02f,
-6.48034364e-03f,+1.02350116e-03f,+7.87920728e-02f,+1.22379512e-02f,+7.35163316e-02f,
+1.54808089e-02f,+3.78650129e-02f,+5.32139018e-02f,-2.92349271e-02f,+6.99681565e-02f,
-6.48879036e-02f,+1.95413828e-04f,-2.11490616e-02f,-3.94516997e-02f,-1.95764005e-04f,
-4.52187061e-02f,-7.65545070e-02f,-5.73855340e-02f,+5.07860631e-03f,+4.09936532e-02f,
-1.01771057e-02f,+2.30140835e-02f,+2.99378186e-02f,+5.86576760e-03f,-4.13874239e-02f,
-3.90914045e-02f,-1.89192183e-02f,-5.24229035e-02f,+3.52512673e-02f,-5.17909080e-02f,
-6.71609640e-02f,+7.85803720e-02f,+7.30489567e-02f,+3.70356292e-02f,+2.03776583e-02f,
+6.85309842e-02f,+5.94458207e-02f,+1.18552893e-02f,-6.30493909e-02f,+1.79141536e-02f,
+2.10716501e-02f,-3.79873812e-02f,-4.64736298e-02f,-2.61932649e-02f,+7.32784793e-02f,
+3.27421948e-02f,-6.75504580e-02f,+1.68243796e-02f,-5.13387471e-03f,+1.39214471e-02f,
+7.32393786e-02f,+5.53474352e-02f,-6.34805039e-02f,+5.24507836e-02f,+1.16087496e-03f,
-5.07026464e-02f,+6.25927076e-02f,-3.24247777e-02f,-3.40091437e-03f,-4.07317206e-02f,
-7.44404420e-02f,-4.62301075e-04f,+1.64674297e-02f,+5.32891676e-02f,+2.38541439e-02f,
-1.54441074e-02f,-4.82978299e-02f,-2.65517086e-03f,+6.82211295e-02f,+1.95892304e-02f,
-3.00868563e-02f,+1.33718327e-02f,-2.52554119e-02f,+5.78928366e-02f,-7.45835453e-02f,
-6.09150529e-03f,+1.53450742e-02f,-5.11533991e-02f,+8.05629790e-03f,+1.18006542e-02f,
+4.65190485e-02f,-5.60760498e-03f,+2.91579813e-02f,-5.94823062e-03f,+5.06266952e-05f,
+3.07585523e-02f,+2.92008743e-02f,+1.49759501e-02f,-2.42372900e-02f,-7.11148009e-02f,
+4.84407321e-02f,-5.68089262e-02f,+4.57570031e-02f,-1.11942664e-02f,+4.87649068e-02f,
-2.50427872e-02f,+7.15038702e-02f,-1.64532959e-02f,-6.63335025e-02f,-2.20781900e-02f,
+3.43093947e-02f,-4.07252610e-02f,+7.11332932e-02f,+1.03396252e-02f,+4.14572954e-02f,
+7.11173639e-02f,-1.44217685e-02f,-2.15098932e-02f,-6.85301200e-02f,+8.05102214e-02f,
-6.79711848e-02f,+5.18087521e-02f,-4.47785296e-02f,-4.44364734e-02f,-4.44165729e-02f,
-1.09697506e-02f,+6.84963688e-02f,+6.22028112e-03f,+3.99019122e-02f,+5.50770238e-02f,
+7.83900395e-02f,-1.42234340e-02f,+4.08828259e-02f,+6.29979596e-02f,+2.94570625e-03f,
-5.73926345e-02f,+1.47779211e-02f,+7.53780976e-02f,+1.14628896e-02f,-3.25814001e-02f,
+3.79528850e-02f,+1.00816339e-02f,-2.12787054e-02f,+1.83088630e-02f,+5.16713634e-02f,
+3.22557390e-02f,-7.42902830e-02f,+2.88304240e-02f,+8.64514709e-03f,+1.99424475e-03f,
+3.28233987e-02f,-4.72021587e-02f,-5.69885969e-02f,+6.76368251e-02f,-3.64569575e-03f,
-5.78923337e-02f,+7.25105032e-02f,-7.35937729e-02f,+8.53078067e-03f,-7.16994330e-02f,
+6.55082986e-02f,-7.23757520e-02f,+7.36180767e-02f,-1.57859698e-02f,-7.76650906e-02f,
-1.48727000e-03f,-7.23449886e-03f,+7.02632591e-02f,-7.79758319e-02f,+4.26957011e-03f,
+7.75076374e-02f,+3.37551162e-02f,-5.66778891e-02f,-5.76695576e-02f,-4.70568314e-02f,
-5.65599650e-02f,-9.15072858e-03f,-3.25061940e-02f,+5.64242825e-02f,-9.70088691e-03f,
-6.63458407e-02f,-1.74814537e-02f,-5.79503104e-02f,+2.76566148e-02f,-4.63742875e-02f,
+2.33792290e-02f,+7.62522742e-02f,-6.30213916e-02f,-7.58301914e-02f,+4.70226258e-03f,
-5.82143143e-02f,-4.26798016e-02f,-6.14345074e-03f,-7.60520399e-02f,+3.72698382e-02f,
+7.00540915e-02f,-1.95495114e-02f,-2.17446983e-02f,-2.73179002e-02f,+4.38080579e-02f,
+5.57687357e-02f,-6.49422482e-02f,+2.41307542e-02f,+4.76137176e-02f,+1.20522082e-03f,
-6.71742558e-02f,+2.82208472e-02f,-6.00377433e-02f,-3.61754410e-02f,+1.07610300e-02f,
-4.85530496e-03f,-6.06910102e-02f,-1.36813223e-02f,-5.15748560e-03f,+4.24594581e-02f,
-7.52601773e-02f,+4.10626754e-02f,+3.30240503e-02f,+7.42398873e-02f,+5.63653558e-03f,
+1.43953115e-02f,+5.20285144e-02f,-3.63274030e-02f,-9.14549083e-03f,+5.34078255e-02f,
+6.90328553e-02f,+1.74119323e-02f,+6.05836883e-02f,-6.87141418e-02f,+1.33313611e-02f,
+5.28706089e-02f,-1.54490173e-02f,+5.93023226e-02f,+4.71586660e-02f,+3.47448140e-02f,
+3.92980948e-02f,-4.87787537e-02f,+4.35973480e-02f,+3.51927653e-02f,+6.61332533e-02f,
+1.25529543e-02f,+5.27881086e-04f,-1.97657160e-02f,+7.70809576e-02f,+2.14710012e-02f,
+2.90096179e-02f,-5.23053817e-02f,-4.86552976e-02f,-5.31798005e-02f,-2.60372795e-02f,
+7.75092468e-02f,+7.59389922e-02f,+5.24630025e-02f,-1.41768083e-02f,+2.34241560e-02f,
+6.13146350e-02f,-6.76935464e-02f,-6.05759844e-02f,-8.06571692e-02f,+3.75971720e-02f,
-3.96962129e-02f,-8.06991309e-02f,+6.40207008e-02f,+5.27701527e-03f,-1.49850920e-02f,
+7.41070509e-03f,+3.45273912e-02f,-1.87842958e-02f,+2.14198753e-02f,-6.56870827e-02f,
+2.56006047e-02f,-4.83493283e-02f,-1.37494132e-02f,+2.97027975e-02f,+2.67676488e-02f,
+5.00106290e-02f,+1.86905861e-02f,+4.63523194e-02f,+4.66882512e-02f,+5.92880026e-02f,
-4.25940380e-02f,-7.25918785e-02f,-7.16919675e-02f,+2.79111788e-02f,-4.33407836e-02f,
+9.43761319e-03f,+4.21389192e-03f,+1.77142322e-02f,-4.81027439e-02f,+1.49340630e-02f,
+8.75951350e-03f,-3.62034068e-02f,+3.66592109e-02f,-3.86982784e-02f,-2.82446109e-02f,
+6.61418810e-02f,+6.44843355e-02f,-7.77051151e-02f,+2.84009650e-02f,+4.45211604e-02f,
-7.26994127e-03f,-2.70365477e-02f,-1.88710690e-02f,+4.87165824e-02f,+4.39807996e-02f,
-7.57071376e-03f,-3.94201949e-02f,+6.70643076e-02f,-1.28595605e-02f,+7.58670270e-03f,
-6.91042542e-02f,+1.12994015e-03f,+4.09169421e-02f,+7.31288865e-02f,+3.24407965e-03f,
+7.05749765e-02f,-7.57473111e-02f,+8.10704455e-02f,-2.10054740e-02f,+1.80606991e-02f,
-1.38830245e-02f,+2.95789763e-02f,+3.01178545e-02f,+3.09928134e-02f,+6.53019622e-02f,
-2.26734802e-02f,+7.54545704e-02f,-3.79533283e-02f,+7.12078735e-02f,+1.81408748e-02f,
+4.69986424e-02f,-2.37977132e-02f,-3.15828472e-02f,-6.48915023e-02f,-3.55591886e-02f,
+4.91825715e-02f,+4.47763577e-02f,+6.66480735e-02f,-2.76943780e-02f,-6.50248602e-02f,
+4.86141667e-02f,+7.47860223e-03f,-1.77150071e-02f,+1.56235844e-02f,+5.77611253e-02f,
+5.08921221e-02f,+7.73342699e-03f,+2.48447061e-02f,-2.97430418e-02f,+2.30113789e-02f,
+7.62172118e-02f,+7.14484975e-02f,+1.20125487e-02f,+8.03833231e-02f,+5.26925698e-02f,
-6.95454776e-02f,+1.35334432e-02f,+3.45951542e-02f,+4.08822671e-02f,+2.92874277e-02f,
+2.57280469e-03f,-6.20153360e-02f,-6.73876554e-02f,-2.21228413e-02f,-2.30184160e-02f,
-4.29344662e-02f,-5.73384650e-02f,+5.19696698e-02f,-1.26226917e-02f,-4.54123430e-02f,
-3.30737159e-02f,+7.34417811e-02f,+6.21168837e-02f,+4.84628007e-02f,-5.90674579e-03f,
-3.42329890e-02f,-5.24313524e-02f,+3.75039652e-02f,-5.26445955e-02f,+3.53252888e-02f,
+5.44629917e-02f,+2.07673609e-02f,+1.49133280e-02f,+3.13856155e-02f,+2.84360647e-02f,
+2.30906084e-02f,-7.00812042e-02f,+2.00762078e-02f,-5.42054325e-03f,+5.10009304e-02f,
-1.81439668e-02f,-4.67717685e-02f,+4.26844060e-02f,+5.45257851e-02f,+6.76508248e-03f,
+1.21149644e-02f,-5.38080074e-02f,+6.02409467e-02f,-3.67245153e-02f,+5.75459525e-02f,
+2.86513343e-02f,+3.33877876e-02f,+3.11573297e-02f,+3.52133065e-02f,-7.87667930e-04f,
+1.81199610e-03f,+3.61643806e-02f,-2.47318111e-02f,+6.35272637e-02f,-7.71002173e-02f,
+4.75790426e-02f,-5.59676290e-02f,+3.72679755e-02f,+3.69916856e-03f,+5.42511865e-02f,
+1.97969377e-04f,-6.40268326e-02f,+6.47532120e-02f,-7.86434710e-02f,+6.08324930e-02f,
+4.71266285e-02f,-7.42689520e-02f,-4.25181910e-02f,+5.71874157e-02f,+6.12004176e-02f,
+7.72656873e-02f,-6.98014349e-02f,-6.56919926e-03f,-5.22841290e-02f,-6.68437779e-02f,
-3.64895537e-02f,-6.89103454e-02f,+4.23627123e-02f,+7.22469389e-03f,+1.33329853e-02f,
+4.17139307e-02f,+7.28172585e-02f,-2.60897838e-02f,+2.77084932e-02f,-1.35787576e-03f,
-2.91071199e-02f,-1.37734711e-02f,-1.60809979e-02f,+4.91882488e-02f,+5.40270582e-02f,
+3.70214134e-03f,-4.94223088e-03f,-5.81485480e-02f,+2.64578909e-02f,+3.89001518e-03f,
-7.67941028e-03f,+2.53908560e-02f,-1.91398300e-02f,-7.84539729e-02f,+3.97546291e-02f,
-3.01692560e-02f,+3.94529551e-02f,+6.25770316e-02f,-1.40626207e-02f,+1.48314908e-02f,
-4.60204333e-02f,+4.41298261e-02f,-1.17638931e-02f,+2.72229910e-02f,-5.85682839e-02f,
-2.09683627e-02f,+1.24158040e-02f,-6.85996562e-02f,+6.76966235e-02f,+1.00524127e-02f,
+2.18847692e-02f,+2.26096660e-02f,-3.70780751e-02f,+3.83554697e-02f,+7.68189132e-03f,
+8.51070881e-03f,+6.37784675e-02f,+5.66451922e-02f,-1.83972195e-02f,+6.71437308e-02f,
-7.70571083e-03f,-1.41686723e-02f,+6.86885193e-02f,-4.15337943e-02f,-2.15542167e-02f,
-6.73183426e-02f,+2.43725255e-02f,-4.41428982e-02f,+2.78075859e-02f,-4.13759351e-02f,
+1.80465207e-02f,+1.71035081e-02f,-7.56411254e-02f,-6.93685710e-02f,+2.00958997e-02f,
-4.47010994e-02f,+6.20072708e-02f,-6.22865930e-02f,-8.07535723e-02f,+1.51806250e-02f,
+2.41923481e-02f,+1.21578351e-02f,-5.58703393e-02f,+3.12920734e-02f,-6.55072182e-02f,
-4.73444909e-02f,+8.91025364e-03f,+1.22385696e-02f,+6.13031313e-02f,+3.68243381e-02f,
+7.49111250e-02f,+4.46360633e-02f,-1.49119645e-03f,+7.41855800e-03f,-1.70722604e-02f,
+6.19340017e-02f,-6.50472119e-02f,+2.38499045e-03f,-3.50956284e-02f,+3.67395803e-02f,
-4.68395464e-02f,+1.93193704e-02f,-4.82761897e-02f,+6.94583431e-02f,-2.37356946e-02f,
+2.18106210e-02f,-3.20392847e-03f,-5.46823442e-03f,+4.27925810e-02f,+2.98559964e-02f,
-1.25799477e-02f,-7.95989335e-02f,+3.65328118e-02f,+7.09236786e-02f,+2.03937069e-02f,
+6.99988753e-03f,+7.88534060e-02f,-1.95826218e-02f,+4.67884168e-02f,-3.97532210e-02f,
-5.19979224e-02f,-2.71832496e-02f,-6.80130869e-02f,-2.79113352e-02f,-1.02453902e-02f,
-6.48074970e-02f,+7.51732066e-02f,+6.28148988e-02f,-5.78179397e-02f,-1.69760510e-02f,
+7.98286721e-02f,+4.48246673e-02f,+2.46502385e-02f,-1.93376802e-02f,+8.04439411e-02f,
-2.84642726e-03f,-2.98015401e-02f,+1.35695115e-02f,+7.23934919e-03f,-2.94683576e-02f,
-2.79024243e-05f,+2.15744227e-02f,+6.30023107e-02f,-5.01503050e-02f,-4.54597808e-02f,
+4.32536453e-02f,+6.86357245e-02f,-3.41821462e-02f,-5.21860458e-02f,-2.66498215e-02f,
-4.20902930e-02f,-6.12989068e-03f,-4.93860543e-02f,+1.19669884e-02f,+7.70202652e-02f,
+5.92313930e-02f,-6.41896576e-02f,-1.57811567e-02f,-8.01826641e-02f,+8.05180296e-02f,
-4.59487475e-02f,-7.38451555e-02f,+5.11988476e-02f,+7.74252191e-02f,-6.12211525e-02f,
-3.39998826e-02f,+2.16170698e-02f,-7.37241730e-02f,+2.63494998e-02f,-4.17006649e-02f,
+6.58921376e-02f,+1.57874972e-02f,-5.77779859e-03f,-5.13357222e-02f,-7.87983313e-02f,
-2.03317851e-02f,-6.87465891e-02f,+7.45988637e-03f,+3.16942781e-02f,-4.27080728e-02f,
+1.18602738e-02f,-3.67018692e-02f,+1.95558369e-02f,-5.41483015e-02f,-7.34242052e-03f,
-4.74042855e-02f,-8.08745846e-02f,+1.60773247e-02f,+3.84365544e-02f,-4.45108302e-02f,
-6.11014664e-02f,-1.44234523e-02f,-5.32908626e-02f,+1.70554221e-03f,+3.76858786e-02f,
-6.80586919e-02f,-1.83947235e-02f,-5.97163998e-02f,-3.77022587e-02f,+3.76119912e-02f,
-5.54243028e-02f,-2.93419063e-02f,-7.85111934e-02f,-5.57392836e-02f,-4.69832495e-02f,
+3.44080478e-03f,+1.09901130e-02f,+3.18737179e-02f,+5.04047051e-02f,-7.64821842e-02f,
+4.47019562e-02f,+2.47421786e-02f,+3.15486193e-02f,-5.69498017e-02f,+7.22401664e-02f,
+5.42060286e-03f,+5.60513660e-02f,-6.96779415e-02f,+1.46165416e-02f,+3.21571529e-02f,
+6.30618259e-02f,+6.74151704e-02f,+3.66255194e-02f,+7.08653405e-02f,+4.50670198e-02f,
+2.41774544e-02f,+7.54257962e-02f,-7.05431551e-02f,+4.28833365e-02f,-3.66586111e-02f,
-3.71221490e-02f,-6.26984239e-02f,+5.10837957e-02f,-1.96136534e-03f,-5.69418073e-04f,
+1.42958611e-02f,+7.07197413e-02f,-9.37791169e-03f,-1.46498233e-02f,-7.82832950e-02f,
-4.04365398e-02f,-6.84980005e-02f,+1.64047405e-02f,+5.06540909e-02f,-7.64294118e-02f,
-4.27348763e-02f,+2.33781859e-02f,-5.12640923e-03f,+5.09866700e-02f,+7.55358860e-02f,
-4.50360179e-02f,-3.31593826e-02f,-1.93965845e-02f,-5.83216995e-02f,-2.85217874e-02f,
-3.59724462e-02f,-1.21317059e-02f,-1.82106867e-02f,-2.09325887e-02f,+6.29297718e-02f,
-5.05954921e-02f,+6.35146871e-02f,-5.06667346e-02f,+4.97733578e-02f,+4.17072996e-02f,
-1.98750719e-02f,+3.95744592e-02f,+1.22350901e-02f,+5.35537302e-03f,+3.49902958e-02f,
-7.67283440e-02f,-5.87803870e-02f,-3.58147174e-03f,-3.26377898e-02f,-7.65611380e-02f,
+4.45579961e-02f,-2.17932202e-02f,-7.07033575e-02f,-3.85277532e-02f,+2.48279050e-02f,
+7.31444284e-02f,+4.76178303e-02f,+6.63141236e-02f,-2.32012793e-02f,-3.87877971e-03f,
+2.04595327e-02f,-2.54652724e-02f,+1.27496272e-02f,+1.24509856e-02f,+3.58707681e-02f,
-2.05587968e-02f,-1.79051161e-02f,+1.67523474e-02f,-5.87496608e-02f,-3.53258736e-02f,
+1.87660754e-03f,-5.41526750e-02f,+4.90499958e-02f,+5.19872680e-02f,+4.87243906e-02f,
-2.90387012e-02f,-3.84559892e-02f,-7.85051808e-02f,-5.71040846e-02f,-5.67995645e-02f,
+5.48512563e-02f,-1.50617883e-02f,+4.87612262e-02f,+3.02686393e-02f,+6.26578107e-02f,
+5.41458651e-02f,-4.32555415e-02f,-3.05398740e-02f,-3.53204571e-02f,-6.93925321e-02f,
+2.17612162e-02f,-1.86452344e-02f,-1.51461661e-02f,-1.73187032e-02f,-3.22196782e-02f,
-7.16373771e-02f,+2.20535919e-02f,+4.62322682e-03f,-7.21927732e-03f,-2.76502296e-02f,
+5.90693429e-02f,+8.77960771e-03f,+6.05669394e-02f,+5.65128550e-02f,+3.72688845e-02f,
+1.79186463e-04f,+9.76815820e-04f,-3.73641662e-02f,+8.04335624e-03f,+1.28715485e-03f,
+5.70525154e-02f,+3.66935134e-02f,-1.05729625e-02f,+7.78395906e-02f,-1.24977529e-03f,
-4.78257611e-02f,+6.80346712e-02f,+2.32357234e-02f,-5.95714375e-02f,-1.54229328e-02f,
+5.13396338e-02f,-3.49798799e-03f,+3.07855085e-02f,-8.00046921e-02f,-6.02545440e-02f,
-2.11818777e-02f,-1.20633245e-02f,+2.15610415e-02f,-5.56445867e-03f,-5.60414270e-02f,
-4.38034534e-04f,-5.40753379e-02f,-8.10012370e-02f,+3.93193290e-02f,-7.45195001e-02f,
+3.57263088e-02f,-3.46538834e-02f,-3.57081145e-02f,-4.35077511e-02f,-5.62321395e-02f,
-3.18401419e-02f,+1.14037842e-03f,-3.06298546e-02f,-2.28082687e-02f,-5.02260104e-02f,
-5.25090732e-02f,+7.47980699e-02f,+6.66695610e-02f,-7.07054287e-02f,-4.43124771e-02f,
-4.70194966e-03f,-5.81177995e-02f,-3.41695175e-02f,+3.85564342e-02f,-6.16193451e-02f,
-2.63907462e-02f,-4.24529240e-02f,-7.23686740e-02f,-1.27768517e-03f,+5.91513887e-02f,
-2.07359381e-02f,+3.79300639e-02f,+1.17427409e-02f,-1.70888528e-02f,+7.64350817e-02f,
+4.64298800e-02f,-6.69526383e-02f,-6.72326759e-02f,+3.17834318e-03f,-5.97613975e-02f,
+5.44552431e-02f,+7.98033997e-02f,-5.82130998e-03f,-5.57964668e-02f,+5.18702641e-02f,
-1.13152266e-02f,-1.80495977e-02f,-2.02312656e-02f,-7.18937814e-02f,-6.00135922e-02f,
-6.89634532e-02f,-7.62897059e-02f,-2.50548162e-02f,-3.72690633e-02f,+6.61511347e-02f,
-7.42610246e-02f,+4.08243313e-02f,+2.62582004e-02f,+6.89462572e-03f,-4.95660305e-03f,
-1.67362541e-02f,+5.29177263e-02f,+3.48273665e-02f,-5.99005967e-02f,+4.41393629e-02f,
-2.77379677e-02f,-6.27436191e-02f,+7.54130408e-02f,+1.51925907e-02f,+6.32110611e-02f,
+1.46258622e-02f,-7.02307671e-02f,-1.10919625e-02f,+1.04338229e-02f,+8.04003403e-02f,
+5.01810536e-02f,-2.27051564e-02f,+7.23957047e-02f,-8.00583363e-02f,+5.27033284e-02f,
+7.59295002e-02f,+1.06235892e-02f,+4.17804942e-02f,+1.80772692e-02f,-2.19083205e-02f,
+6.61967620e-02f,+4.46484461e-02f,+7.86843523e-02f,+1.18721277e-02f,+3.32444906e-02f,
+1.80322304e-02f,+3.54034007e-02f,+3.32673490e-02f,+3.54085863e-03f,-2.02523917e-03f,
-6.73226714e-02f,-7.48847052e-02f,+6.01796433e-02f,-3.27430479e-02f,+6.66151270e-02f,
-5.35370559e-02f,-5.22174686e-02f,+7.74800852e-02f,-3.51590998e-02f,+7.22685233e-02f,
+9.51038301e-03f,-5.36241196e-02f,+2.67529115e-02f,-8.07330683e-02f,+6.48316368e-02f,
+2.67404392e-02f,-6.43031523e-02f,-6.13800921e-02f,-2.78925598e-02f,+1.11572742e-02f,
-4.44066934e-02f,+6.02107421e-02f,-2.85193510e-02f,+3.09721231e-02f,+6.63900599e-02f,
+5.73396459e-02f,-2.27642730e-02f,+6.08208105e-02f,+2.02330425e-02f,+3.93145159e-02f,
+3.10023129e-02f,+3.64658609e-02f,-7.71663338e-02f,-1.93574466e-02f,+6.30592927e-02f,
+4.70127910e-03f,-3.62649187e-02f,-2.33118162e-02f,-1.80045143e-02f,+7.50933215e-02f,
-8.15755129e-03f,+2.49731690e-02f,-1.29918531e-02f,+1.83213949e-02f,-2.50278413e-02f,
-4.14632261e-04f,+2.94032246e-02f,-3.89835760e-02f,-1.83588266e-03f,-4.95261028e-02f,
-8.08706135e-03f,-7.07654506e-02f,+5.55632263e-03f,-3.80176269e-02f,+8.07304010e-02f,
+2.09210590e-02f,-7.39601031e-02f,-6.25056773e-02f,-6.01064712e-02f,-5.86409569e-02f,
+7.97716901e-02f,-4.22344394e-02f,+1.94437504e-02f,+2.92836428e-02f,+5.08230701e-02f,
-2.40289606e-02f,+3.88842747e-02f,-4.29706126e-02f,-6.84424415e-02f,+1.99615955e-02f,
-5.56133911e-02f,+2.39590928e-02f,-9.26941633e-04f,-2.24818960e-02f,+4.98085544e-02f,
+5.49818203e-02f,-1.97703764e-02f,-6.04657196e-02f,+4.58953902e-02f,+5.55134937e-02f,
-1.31143481e-02f,-2.10513063e-02f,+3.81270051e-03f,+5.45652732e-02f,+2.85740420e-02f,
-6.47564083e-02f,+2.98811346e-02f,-8.08203667e-02f,-3.03555243e-02f,+3.74556780e-02f,
+6.08434007e-02f,+4.85143289e-02f,-1.35521442e-02f,+5.83359674e-02f,+4.13720459e-02f,
-2.64096968e-02f,+6.67544231e-02f,-1.18021071e-02f,+2.27866471e-02f,+9.59481299e-03f,
-4.71191220e-02f,-3.82929668e-02f,+7.99862668e-02f,-4.47127968e-02f,+2.05081105e-02f,
-6.34245947e-02f,-3.96030992e-02f,-8.07777420e-02f,+5.18551841e-02f,-4.99924272e-02f,
+2.00182125e-02f,-3.58220153e-02f,-3.17208469e-02f,+4.92376462e-02f,+7.76376650e-02f,
+5.97881451e-02f,-1.61842406e-02f,-1.83928758e-03f,-1.44971907e-02f,+5.92913851e-02f,
-2.04978809e-02f,-2.63513736e-02f,+4.13225219e-02f,-6.37102798e-02f,-2.05098540e-02f,
+7.66235813e-02f,-4.20243479e-02f,-7.46298656e-02f,-2.95596533e-02f,-6.35635406e-02f,
-1.99634507e-02f,+2.92054564e-02f,-4.09623496e-02f,-7.98858032e-02f,-5.35495877e-02f,
-1.88089907e-03f,-4.34803106e-02f,-3.92636135e-02f,+4.80092391e-02f,-2.69228593e-02f,
+2.79505327e-02f,+1.21658370e-02f,-1.39048919e-02f,-3.84102128e-02f,+2.89592892e-03f,
+4.70291004e-02f,+6.38573095e-02f,+7.87335411e-02f,-4.03990410e-02f,-3.53802517e-02f,
-3.30282114e-02f,-5.95961921e-02f,-7.45689273e-02f,+6.07834831e-02f,+1.90588012e-02f,
-6.80432618e-02f,-3.79327126e-02f,+6.63693473e-02f,+2.61560008e-02f,+7.55087286e-03f,
+3.92506197e-02f,+1.06242672e-02f,-5.71198836e-02f,+6.06975928e-02f,-1.82486027e-02f,
-4.20749001e-02f,+7.60059059e-03f,-5.61705455e-02f,-4.28512953e-02f,-4.09030393e-02f,
-7.79389590e-03f,-1.88648999e-02f,+6.53414652e-02f,+1.30291954e-02f,-1.53996125e-02f,
-1.44535229e-02f,-2.07499750e-02f,-4.37548757e-02f,+3.51177901e-03f,-3.83217819e-02f,
+1.27210394e-02f,+2.66818851e-02f,+2.33824030e-02f,-3.43273953e-02f,+4.29420322e-02f,
+1.82080567e-02f,-7.44707659e-02f,-4.95509692e-02f,-1.01209730e-02f,-6.49603829e-02f,
+2.83005759e-02f,-1.11876503e-02f,-1.10875368e-02f,+1.52992085e-02f,-1.10387877e-02f,
+3.21801081e-02f,+1.68368742e-02f,-4.71575856e-02f,-5.01884185e-02f,+1.56558231e-02f,
+7.31964335e-02f,-6.31208867e-02f,+2.98993140e-02f,-6.51686564e-02f,-4.42514643e-02f,
-2.47727111e-02f,-7.74516165e-03f,-6.12872317e-02f,+4.75926027e-02f,+1.24518573e-02f,
-6.11485168e-02f,+6.81073591e-02f,+4.50265631e-02f,+7.21902922e-02f,+4.32863310e-02f,
-1.00998357e-02f,-1.83922127e-02f,+3.53515148e-02f,+1.12594143e-02f,-1.33235455e-02f,
-7.13362843e-02f,-3.66180576e-02f,-2.20993645e-02f,-3.82369645e-02f,+5.49251363e-02f,
-2.11020894e-02f,-1.22402757e-02f,-2.77566165e-03f,+3.23418751e-02f,-2.03911141e-02f,
-3.56249511e-04f,+3.89640033e-03f,+2.46185288e-02f,-3.58464383e-02f,-7.04339892e-03f,
+4.35345769e-02f,+7.95205161e-02f,+2.87237540e-02f,+6.28961399e-02f,+1.01033524e-02f,
-1.54923201e-02f,-6.21502399e-02f,-1.09496564e-02f,-1.63599700e-02f,-3.18370499e-02f,
+5.80644980e-02f,+4.95129451e-02f,+4.29629907e-02f,+4.68227491e-02f,+1.44648328e-02f,
+2.72128358e-02f,-3.48149538e-02f,-1.11170262e-02f,+3.03273648e-02f,-7.89346099e-02f,
+5.96323684e-02f,-5.45009002e-02f,+5.63370660e-02f,+5.30515537e-02f,-1.72617137e-02f,
+3.14506143e-03f,-3.22980918e-02f,-1.31819099e-02f,-6.01595752e-02f,-4.78719622e-02f,
+2.83659026e-02f,-1.47563443e-02f,-5.95513284e-02f,+3.94338071e-02f,+6.11448213e-02f,
-2.88067758e-02f,-2.89698169e-02f,-1.31983086e-02f,+2.82458514e-02f,-2.78404988e-02f,
+5.89607880e-02f,-6.07298426e-02f,+2.90908739e-02f,-3.99791300e-02f,-1.70939937e-02f,
-6.98593408e-02f,-7.03698471e-02f,-6.34389073e-02f,+7.37884864e-02f,+7.21457824e-02f,
+4.77617010e-02f,-6.43864274e-02f,+7.19352439e-02f,-4.98843417e-02f,-6.29348159e-02f,
+4.81225476e-02f,-2.98359990e-02f,+5.36063984e-02f,+4.26220968e-02f,+9.44124907e-03f,
-5.73672988e-02f,-5.06669432e-02f,-5.16388863e-02f,+1.48555264e-02f,+8.39282572e-03f,
+7.02333376e-02f,-8.01532120e-02f,-1.70421079e-02f,+4.86528650e-02f,-1.80856809e-02f,
+5.00206426e-02f,-5.13396673e-02f,-3.78292724e-02f,-2.08818242e-02f,+1.66264325e-02f,
+5.41621074e-02f,-2.45346874e-03f,-3.76084112e-02f,+1.70411170e-03f,-6.41521960e-02f,
+4.13818657e-03f,-7.15296641e-02f,-6.98760822e-02f,+9.61554050e-03f,+7.86293373e-02f,
-2.19850168e-02f,+5.59302680e-02f,+1.32910311e-01f,-2.82397233e-02f,-1.47470847e-01f,
-1.85153782e-02f,+1.48414537e-01f,-5.70060983e-02f,+1.26776785e-01f,+7.92506412e-02f,
-2.17701867e-02f,+1.77731141e-02f,-5.49861938e-02f,-6.94989413e-02f,+1.05900660e-01f,
+5.97961321e-02f,-1.25707567e-01f,-2.51792222e-02f,-8.65480825e-02f,+6.48395568e-02f,
+2.65535228e-02f,+6.63216412e-03f,+9.39652249e-02f,+3.23612173e-03f,+7.58121833e-02f,
+1.17734432e-01f,-7.41009414e-02f,-1.20022334e-01f,-8.83273035e-03f,+1.75708663e-02f,
+1.32742479e-01f,-9.30994004e-03f,+6.38398603e-02f,+3.01620383e-02f,+3.25236842e-02f,
-3.91331762e-02f,+9.29942206e-02f,+1.19759962e-02f,-4.20473032e-02f,-3.57754491e-02f,
-6.24380708e-02f,+1.02853760e-01f,-8.29091519e-02f,+1.21506020e-01f,+1.35648057e-01f,
+7.58345500e-02f,-1.10587769e-03f,+2.45607756e-02f,+6.06702231e-02f,-1.53120058e-02f,
+7.05387369e-02f,-6.80095553e-02f,-1.09747704e-02f,+7.41932765e-02f,-5.72093129e-02f,
+4.89626378e-02f,-9.17699933e-02f,-3.46016921e-02f,-9.54195559e-02f,+2.02075392e-02f,
-7.41591901e-02f,-1.34732276e-02f,+2.29315329e-02f,-4.57653254e-02f,-4.72162776e-02f,
+4.79530962e-03f,-3.72806080e-02f,-8.97659138e-02f,-4.32210118e-02f,+7.70900846e-02f,
+4.56991754e-02f,+8.53144005e-02f,+1.99672207e-02f,-1.08460858e-02f,+1.72250587e-02f,
-3.27852070e-02f,+1.60519481e-02f,-6.35236204e-02f,+4.20909971e-02f,+2.27938369e-02f,
-2.04607733e-02f,+1.28906250e-01f,-1.01323975e-02f,+4.76961769e-02f,+7.45936707e-02f,
+6.83185086e-02f,-8.73860717e-03f,+3.73427421e-02f,+7.02329725e-02f,+2.46445388e-02f,
+1.41948789e-01f,-3.75226438e-02f,-1.95657946e-02f,-8.71230662e-03f,-4.98147332e-04f,
-1.21071376e-02f,+4.37095836e-02f,-8.06689411e-02f,+1.93619300e-02f,-4.27310318e-02f,
+7.91432261e-02f,-5.13643846e-02f,-4.67315577e-02f,+6.16072938e-02f,+3.75387743e-02f,
-3.29685882e-02f,-7.42474645e-02f,+7.46856490e-03f,-1.39646471e-01f,-9.65082198e-02f,
+4.53159735e-02f,+8.72573107e-02f,+7.58953765e-02f,+4.28691581e-02f,+2.54800841e-02f,
+7.66476169e-02f,-1.59510486e-02f,-5.80973178e-03f,-7.40538761e-02f,-3.45459469e-02f,
+3.78900580e-02f,-4.16933633e-02f,+5.11312298e-02f,+7.73428846e-03f,+1.08397499e-01f,
+2.19130889e-02f,+5.22064650e-03f,-1.30402386e-01f,-6.27493411e-02f,+8.29793699e-03f,
+2.37080138e-02f,+8.19074810e-02f,-5.49738891e-02f,+2.27338150e-02f,+1.40586942e-01f,
+1.42044649e-02f,+5.37867062e-02f,-1.81552023e-02f,-5.13836741e-04f,+2.59348452e-02f,
-1.91898979e-02f,-2.25402564e-02f,+4.23464030e-02f,+1.17547289e-02f,-7.91262388e-02f,
+6.55748770e-02f,+1.63667686e-02f,-3.48736309e-02f,+6.58046976e-02f,-4.69787456e-02f,
+1.24093900e-02f,-7.57798031e-02f,+1.65544152e-02f,+7.50692859e-02f,+4.61587682e-02f,
-8.69952887e-02f,+6.22380748e-02f,+4.51731831e-02f,+1.04720153e-01f,-5.01594506e-02f,
-5.66919856e-02f,+3.59551422e-02f,+1.11140996e-01f,+2.45130584e-02f,+5.61642572e-02f,
-6.77044094e-02f,+1.34022376e-02f,-6.00906909e-02f,-4.01726887e-02f,+4.11779769e-02f,
-6.24097735e-02f,+3.13952751e-02f,+8.26847032e-02f,-4.27327715e-02f,+1.07885478e-02f,
-6.97091892e-02f,+1.06054924e-01f,+3.37036178e-02f,+1.25985071e-02f,-6.11993372e-02f,
-4.35754210e-02f,+7.64356926e-02f,-4.27997299e-02f,+1.06840864e-01f,-5.87621927e-02f,
+1.52659463e-02f,-1.14363916e-01f,+4.59131710e-02f,+8.00553039e-02f,+1.38827413e-03f,
-6.76212758e-02f,-7.81926587e-02f,+8.32869858e-03f,+1.24224760e-01f,-6.88129067e-02f,
-3.01768463e-02f,+2.56001577e-02f,+7.61681646e-02f,+1.19281724e-01f,+2.92165559e-02f,
+6.73993751e-02f,-1.39596453e-02f,+2.27728356e-02f,-2.37798616e-02f,-1.73329785e-02f,
+4.23330404e-02f,+6.47608712e-02f,+1.59207154e-02f,+3.49006429e-02f,+1.33074457e-02f,
-1.24491900e-02f,+3.60970013e-02f,-1.48082552e-02f,-3.91655415e-03f,-1.89339370e-03f,
-6.40866607e-02f,+5.22519946e-02f,+8.02438334e-02f,+1.61468431e-01f,-7.58033544e-02f,
-1.00141041e-01f,+6.38713911e-02f,+4.75165322e-02f,+7.15140579e-03f,+5.13513386e-02f,
+2.69912407e-02f,+1.34827450e-01f,-6.29853399e-04f,+9.34527367e-02f,-7.78685138e-02f,
-1.07751298e-03f,-7.72623494e-02f,+7.45816156e-02f,-5.48630729e-02f,-3.73122841e-02f,
+5.69234118e-02f,-7.33162537e-02f,-2.92991884e-02f,+2.54223794e-02f,+1.25902876e-01f,
+4.58992645e-02f,+4.20833491e-02f,+7.70624653e-02f,+3.15777212e-03f,-1.73682105e-02f,
+6.53199181e-02f,+2.72056609e-02f,-4.85822819e-02f,+2.97546592e-02f,+1.15593024e-01f,
+1.09391240e-02f,-5.98395169e-02f,+3.98302972e-02f,+9.32091326e-02f,-1.04288394e-02f,
-7.29403719e-02f,+6.35220390e-03f,+4.24831957e-02f,+2.13954467e-02f,+1.12427384e-01f,
-3.97476107e-02f,+1.59626231e-02f,-1.00659654e-01f,-6.82957768e-02f,+1.86534841e-02f,
-3.89670990e-02f,+2.14304104e-02f,-3.02991122e-02f,-6.62681609e-02f,-3.07565592e-02f,
+4.70372215e-02f,-1.56307593e-02f,+3.66287157e-02f,+3.90017554e-02f,-4.02621180e-02f,
+2.32769921e-02f,-1.66632906e-02f,+1.77255049e-02f,+5.73210791e-02f,+3.58869843e-02f,
-6.61151707e-02f,-4.11454812e-02f,-7.01562986e-02f,-2.18435563e-02f,+4.78347018e-02f,
-2.07445435e-02f,-3.68285030e-02f,-6.49069920e-02f,-7.60425106e-02f,-6.28021359e-02f,
+3.94237451e-02f,-3.43833603e-02f,+3.15297246e-02f,-3.88899222e-02f,-6.32072315e-02f,
+2.33480409e-02f,+1.67968422e-02f,-5.74841797e-02f,-6.15683496e-02f,-9.31521282e-02f,
-5.31089306e-03f,+7.01619685e-02f,-2.25056335e-02f,-8.97559002e-02f,+1.26197740e-01f,
+6.83934763e-02f,-3.82838398e-02f,-4.48881388e-02f,-3.84526551e-02f,+1.18593127e-02f,
-6.60052225e-02f,-1.48334913e-03f,+1.91236362e-02f,-2.37923749e-02f,+5.86544909e-02f,
+7.20488429e-02f,+6.09102100e-03f,+2.55937949e-02f,+3.92460600e-02f,-7.84456581e-02f,
-7.87841976e-02f,+8.41824897e-03f,-6.03031218e-02f,+9.47932806e-03f,+5.97957224e-02f,
-7.01663345e-02f,+1.28631219e-01f,+5.98525777e-02f,+1.18755177e-02f,-1.05048791e-02f,
+8.63340721e-02f,+7.87315741e-02f,-2.28921175e-02f,-1.96144488e-02f,-8.63876939e-02f,
+7.83450902e-03f,-2.32667588e-02f,+4.87924553e-02f,-5.07699549e-02f,+6.64013773e-02f,
-7.73780374e-03f,-2.57821903e-02f,+1.75516903e-02f,-3.04583460e-02f,-1.95432440e-04f,
+6.17955625e-03f,-6.50690943e-02f,-2.95631364e-02f,+2.34988946e-02f,-3.98100168e-02f,
-7.46123418e-02f,-4.70238924e-02f,+3.68357785e-02f,+7.86740705e-02f,-6.50389716e-02f,
-5.09748496e-02f,-5.07630333e-02f,+1.03552386e-01f,+4.76608574e-02f,+7.07850382e-02f,
-4.79403399e-02f,+2.21386012e-02f,-1.21343583e-02f,+7.38665462e-04f,+4.77151722e-02f,
-2.64385808e-02f,+5.37719354e-02f,-2.66930219e-02f,+5.05754724e-02f,-5.86169809e-02f,
+1.10192746e-02f,+4.24289852e-02f,+7.15026632e-02f,-3.01397443e-02f,+4.93460819e-02f,
+2.02045403e-02f,+3.96115109e-02f,+2.68733650e-02f,-3.77917737e-02f,+7.02313334e-02f,
+5.51526919e-02f,-5.25969230e-02f,-2.57278662e-02f,-8.34478624e-03f,-3.65687767e-03f,
+4.42547426e-02f,-8.19489807e-02f,-2.83626597e-02f,+3.01548094e-02f,-3.81553732e-02f,
-8.00119564e-02f,-6.30102754e-02f,-5.95083646e-02f,-4.93681431e-03f,+5.26791066e-03f,
-4.03621048e-02f,+5.38422689e-02f,+5.47424704e-03f,+6.15339652e-02f,-8.42020661e-03f,
+2.78170407e-02f,-8.11374933e-03f,+1.10034598e-02f,-7.31883496e-02f,-8.54027271e-03f,
-1.40601993e-02f,-7.37923905e-02f,-2.32230145e-02f,-3.15973684e-02f,+6.62484467e-02f,
-3.17266472e-02f,-5.18114828e-02f,+6.45799562e-02f,+2.22754031e-02f,+3.21914628e-02f,
-2.15167217e-02f,-5.92603050e-02f,-2.08310224e-02f,+3.76311690e-02f,+7.89619461e-02f,
+7.24611506e-02f,+6.55662492e-02f,+4.67990562e-02f,-5.35754114e-03f,-3.38786095e-03f,
-3.14984471e-03f,-6.38934523e-02f,-6.80252090e-02f,+6.37743250e-02f,-4.26995046e-02f,
+1.50633266e-03f,-6.50673211e-02f,+3.51231880e-02f,-5.40065244e-02f,-5.63258901e-02f,
-5.54159284e-02f,+3.55411917e-02f,+3.85262221e-02f,+1.04799564e-03f,+8.36308300e-02f,
+8.28121305e-02f,+6.97529837e-02f,+5.44557795e-02f,+3.66584025e-02f,-5.08985817e-02f,
+7.47106224e-03f,+5.99129610e-02f,+1.72869116e-03f,+8.07046667e-02f,-7.29455724e-02f,
+2.97149420e-02f,+2.22130828e-02f,+5.21015711e-02f,+1.02007017e-02f,+6.80011883e-02f,
+4.77281436e-02f,+9.82347131e-03f,-2.75364202e-02f,+1.71410032e-02f,-6.99637234e-02f,
+2.67959386e-02f,+4.20786887e-02f,+5.19549884e-02f,+6.54333010e-02f,-5.33779636e-02f,
+3.63501422e-02f,+2.64843702e-02f,+1.50350342e-02f,+1.68150570e-02f,-5.10656238e-02f,
-2.32124180e-02f,-3.28327008e-02f,+3.50264870e-02f,-6.47396967e-02f,-5.45677021e-02f,
+2.66750753e-02f,+7.48702958e-02f,+6.19635656e-02f,-3.95487174e-02f,-6.28650561e-02f,
-7.15659037e-02f,+6.70344755e-02f,-2.41152644e-02f,-2.88178958e-02f,+1.04760062e-02f,
+3.28243859e-02f,-2.76076607e-02f,-6.21563904e-02f,+7.87272975e-02f,-1.68352295e-02f,
+3.45281065e-02f,-4.23763692e-03f,+7.36280382e-02f,-5.42870760e-02f,-6.04152270e-02f,
+5.79143502e-02f,+3.27692106e-02f,-7.00538605e-02f,-6.96547329e-04f,+2.55513191e-03f,
+8.08371976e-03f,+8.25078040e-03f,-2.48156413e-02f,-4.90738153e-02f,+2.50415504e-02f,
+4.42237779e-02f,+7.66062811e-02f,+5.44474982e-02f,+1.33562833e-02f,+6.69223722e-03f,
+3.51914614e-02f,+6.48830552e-03f,+3.16677392e-02f,-2.57431045e-02f,-7.96019360e-02f,
+1.12135261e-02f,-6.55968487e-03f,-6.49369285e-02f,+4.76640239e-02f,+3.46525908e-02f,
+2.32377872e-02f,-7.19198734e-02f,+7.54158944e-03f,+6.62760437e-03f,-3.83459553e-02f,
-3.88411283e-02f,-3.45877111e-02f,+5.43819442e-02f,-6.29182458e-02f,-6.97503462e-02f,
+6.43367842e-02f,-5.97325489e-02f,+6.80247471e-02f,+5.15933260e-02f,+5.84428385e-02f,
-7.99401104e-03f,-4.60100509e-02f,-5.67624345e-02f,-2.19978206e-02f,+6.84084371e-02f,
+5.16911224e-02f,+5.54823503e-02f,-3.78876552e-02f,-7.52942115e-02f,+4.96465191e-02f,
-5.04033454e-02f,-6.11151755e-02f,-2.86205113e-03f,-3.69013622e-02f,+6.38741329e-02f,
-5.63289672e-02f,-8.56584311e-03f,+3.95731404e-02f,+7.89250508e-02f,+5.90344742e-02f,
+7.09980950e-02f,+4.78594229e-02f,+4.89150509e-02f,-6.07106611e-02f,+1.17837340e-02f,
-1.80345029e-03f,-5.89663610e-02f,-7.65378773e-03f,-2.00168788e-03f,+3.72501090e-02f,
-6.00981377e-02f,+2.48495489e-03f,+4.49245349e-02f,+5.09651974e-02f,-7.24274218e-02f,
-7.54854083e-02f,+3.48626450e-02f,-1.69892609e-02f,+6.94051757e-02f,+1.26383528e-02f,
-7.21971616e-02f,+7.32344463e-02f,-5.22940680e-02f,-2.33000405e-02f,+1.81990415e-02f,
-6.26053885e-02f,-4.40650247e-02f,+1.65173262e-02f,+8.72112811e-03f,+5.50410822e-02f,
+3.39585021e-02f,-6.08812794e-02f,-5.53889126e-02f,-2.53664553e-02f,+6.47368208e-02f,
-5.89493439e-02f,+5.68640158e-02f,-3.45923752e-03f,-5.70915341e-02f,+4.76543680e-02f,
+6.21639863e-02f,+3.73074263e-02f,+6.17605373e-02f,-1.44517794e-02f,+5.91875687e-02f,
+6.18052408e-02f,-7.99824521e-02f,+5.85101545e-04f,-2.85561122e-02f,+3.08658779e-02f,
-4.78352569e-02f,-2.78224051e-03f,+7.70284906e-02f,+1.65212154e-02f,-2.54731029e-02f,
+7.89258257e-02f,-2.17168517e-02f,+1.39091462e-02f,+5.68621606e-03f,-7.27100149e-02f,
-5.97243756e-03f,+7.16952160e-02f,+6.85760602e-02f,+2.17100456e-02f,+7.60627165e-02f,
+4.66424003e-02f,-4.51923683e-02f,+5.70088103e-02f,-1.58540606e-02f,-2.34257989e-02f,
+1.49596483e-02f,-5.37040830e-02f,-3.89614329e-02f,+3.18352506e-02f,-1.92697644e-02f,
-6.16084784e-02f,-3.99949104e-02f,-6.14470392e-02f,+2.48421729e-03f,-6.89976066e-02f,
-5.40960878e-02f,-6.19335920e-02f,+8.96554440e-03f,-6.28367886e-02f,+3.44700366e-02f,
+6.99659809e-02f,+2.11020112e-02f,-6.66050091e-02f,+5.93227819e-02f,+4.77756932e-02f,
+2.54363641e-02f,+4.36543748e-02f,-5.78928553e-02f,-7.48159960e-02f,-5.74297607e-02f,
+6.95817396e-02f,-1.42514557e-02f,-3.88659015e-02f,+5.98068759e-02f,+7.01414570e-02f,
+7.35263750e-02f,+2.38219649e-02f,+2.67523304e-02f,-3.08774821e-02f,+4.90267053e-02f,
+2.68714353e-02f,+3.48217040e-03f,+1.07211694e-02f,-7.66535103e-03f,-6.34636432e-02f,
+9.83636826e-03f,+6.22321889e-02f,+3.68279368e-02f,-5.13221659e-02f,-4.67901975e-02f,
-6.02352098e-02f,-7.02751875e-02f,-2.26515681e-02f,+7.41361752e-02f,-7.43202195e-02f,
+3.50141749e-02f,-2.92586163e-02f,+4.89945039e-02f,+4.67820391e-02f,-6.89834356e-04f,
-6.46722838e-02f,-3.41764800e-02f,+7.32109323e-02f,+2.44661793e-02f,+1.62259564e-02f,
+2.83551663e-02f,-2.73764953e-02f,-6.78014755e-02f,-5.47846295e-02f,+6.51778206e-02f,
+7.65436664e-02f,-4.31575365e-02f,-6.61975890e-02f,-2.16651410e-02f,+5.27452156e-02f,
+2.02201232e-02f,-8.47236067e-03f,+2.30771303e-03f,-1.19617656e-02f,-4.64007631e-02f,
+5.99719360e-02f,+4.00349200e-02f,-1.26371160e-02f,+3.35496292e-02f,-6.05353937e-02f,
-5.58413900e-02f,+4.88911495e-02f,+2.25332603e-02f,+5.68215325e-02f,-4.98984233e-02f,
-6.78747818e-02f,-7.21696243e-02f,-1.78732499e-02f,+5.92560545e-02f,-8.02230015e-02f,
-1.09048262e-02f,-2.09709741e-02f,-6.80634081e-02f,-3.77423093e-02f,-3.83915752e-03f,
-1.70969740e-02f,+3.38881090e-02f,+9.91370529e-03f,+7.25561008e-02f,+7.04907849e-02f,
-1.57975331e-02f,-7.29808509e-02f,-6.49056360e-02f,-4.49810028e-02f,+4.91683111e-02f,
-6.08313903e-02f,+1.50772408e-02f,-1.12245306e-02f,-6.31548092e-02f,-7.65815079e-02f,
+3.61285433e-02f,+1.42798647e-02f,+7.90417418e-02f,-2.27662250e-02f,+5.54065332e-02f,
-4.42369394e-02f,-7.62906745e-02f,-7.48685971e-02f,-4.57752831e-02f,+6.74211308e-02f,
-3.34258638e-02f,-2.78105438e-02f,-1.30534843e-02f,-3.24382782e-02f,-6.27785623e-02f,
+6.76439181e-02f,+5.50389066e-02f,+3.73321846e-02f,+1.44758821e-03f,-9.90490615e-03f,
+4.25332561e-02f,-4.77030426e-02f,-6.05926663e-03f,+6.94022402e-02f,-5.67899533e-02f,
+4.60515097e-02f,+4.29111049e-02f,+6.52439073e-02f,+4.09717262e-02f,+5.51232472e-02f,
-6.65196329e-02f,+5.77214435e-02f,-4.87638228e-02f,+7.66328797e-02f,+4.87936288e-03f,
-7.40171224e-03f,-2.46613584e-02f,+6.02787063e-02f,+5.30105308e-02f,+7.49210939e-02f,
+6.32721260e-02f,+2.58620009e-02f,+6.36887550e-03f,+6.90032914e-02f,+1.42041966e-02f,
-1.75512657e-02f,-6.08196706e-02f,-8.00962597e-02f,+5.68824932e-02f,+3.74687687e-02f,
+7.52935186e-02f,-3.98847796e-02f,-2.93023586e-02f,+5.73676899e-02f,+9.09893960e-03f,
-4.09722105e-02f,-3.70833166e-02f,+6.66709244e-03f,+4.12867516e-02f,+5.77382073e-02f,
-5.77947907e-02f,+5.45833036e-02f,+5.90926409e-03f,-1.25885010e-02f,+2.15367749e-02f,
+8.51660967e-04f,+3.76837701e-02f,+2.70832106e-02f,-6.65339604e-02f,-5.87232225e-02f,
+1.50207952e-02f,+5.55572733e-02f,+2.88273543e-02f,-9.06080753e-03f,+7.93625638e-02f,
-3.68689708e-02f,-2.81655379e-02f,+4.99110296e-02f,-7.67277628e-02f,-1.34939551e-02f,
+2.84269303e-02f,+1.18032843e-02f,+2.96049267e-02f,+6.09530285e-02f,+5.31168208e-02f,
-5.55631295e-02f,-3.55319008e-02f,-7.58550242e-02f,+1.72781944e-02f,+5.43761477e-02f,
+3.88847366e-02f,+6.27151057e-02f,+5.58755025e-02f,-2.97070704e-02f,-7.50466436e-02f,
+4.67708707e-03f,-1.52721480e-02f,-3.78610454e-02f,+2.31437460e-02f,-1.08399466e-02f,
+6.90695271e-02f,+4.92852107e-02f,-4.62808460e-02f,-9.97753441e-03f,+3.53071690e-02f,
-5.67025691e-03f,-5.70750758e-02f,-1.19311363e-03f,-3.35972607e-02f,-1.12125278e-03f,
+7.47040436e-02f,+6.74486384e-02f,-1.16978735e-02f,+2.80738547e-02f,+6.45675734e-02f,
+2.25918740e-02f,-1.12830102e-02f,+2.07615048e-02f,-5.10953851e-02f,+5.98779544e-02f,
+6.64636865e-02f,-6.34845272e-02f,-1.10695511e-02f,-4.95055839e-02f,-6.47813082e-04f,
-6.49977252e-02f,-2.88080536e-02f,+4.70598266e-02f,+7.26070926e-02f,+5.60238734e-02f,
-5.03697172e-02f,+2.02454180e-02f,+7.31243566e-02f,-4.25597318e-02f,-6.39791191e-02f,
-1.94695890e-02f,-5.09162173e-02f,+4.64465469e-03f,-4.09780890e-02f,+6.29722401e-02f,
+3.22206467e-02f,-6.01565763e-02f,-2.80756131e-02f,-4.65248525e-03f,+1.90302953e-02f,
-3.19573134e-02f,-5.70979714e-02f,+1.34528205e-02f,-1.20673925e-02f,+6.44966289e-02f,
-2.04659924e-02f,-1.34955049e-02f,-1.23894662e-02f,+3.42078656e-02f,-2.91218348e-02f,
+1.03718266e-02f,+5.16423509e-02f,-2.41642296e-02f,-7.85810053e-02f,+5.35588786e-02f,
-4.02516276e-02f,+3.15801576e-02f,+7.15222135e-02f,-1.01400167e-02f,+6.33707419e-02f,
+5.62407002e-02f,+8.01360980e-02f,-7.87665993e-02f,-3.00841779e-03f,+3.14005464e-02f,
+7.34843835e-02f,+4.77889404e-02f,-4.39056195e-02f,-5.39768711e-02f,-6.71878457e-03f,
+6.57574311e-02f,-2.49610655e-02f,-6.36370033e-02f,+1.92435235e-02f,-6.08990900e-02f,
+6.48412779e-02f,-3.08324434e-02f,+3.89396399e-02f,-6.14823736e-02f,-6.46117777e-02f,
+1.13858283e-02f,+7.25017413e-02f,+2.16413289e-03f,+7.36732110e-02f,+1.58230066e-02f,
+6.56030700e-02f,+3.73530090e-02f,+5.99564388e-02f,-5.22744805e-02f,-6.81084245e-02f,
-1.74597651e-03f,+3.47726643e-02f,+4.69344333e-02f,-2.52999291e-02f,-4.48340923e-03f,
-5.26930392e-02f,-9.99463350e-03f,-6.75952882e-02f,+7.68288746e-02f,-5.92170283e-02f,
-7.42115006e-02f,+6.64630532e-03f,+7.64381513e-02f,-2.35201307e-02f,+6.21258542e-02f,
+6.88344911e-02f,-4.63941470e-02f,-3.19566764e-02f,-5.60106561e-02f,+2.95104384e-02f,
-2.79667974e-02f,-6.55187219e-02f,+4.10890356e-02f,+7.10509792e-02f,-5.42388856e-03f,
-8.08470696e-03f,-2.24619396e-02f,-3.59620899e-03f,+2.12878361e-02f,-3.76892239e-02f,
+6.79203868e-03f,+7.74384812e-02f,+5.85605949e-03f,+3.33699584e-02f,-5.65494448e-02f,
+1.46075487e-02f,-6.71946704e-02f,-3.98611091e-02f,-5.80126345e-02f,-1.11908838e-02f,
-6.93686455e-02f,+1.85200572e-02f,-3.01770680e-02f,-5.34680597e-02f,+3.62585410e-02f,
-2.75059864e-02f,-4.06946465e-02f,+5.70658669e-02f,-2.92037539e-02f,+1.32847130e-02f,
+6.48682192e-02f,+7.96190426e-02f,+1.04396492e-02f,+7.80757740e-02f,+3.70167568e-02f,
-1.90666541e-02f,-3.08364071e-02f,-4.67852466e-02f,-6.57975674e-03f,-2.49007680e-02f,
-1.42305121e-02f,-7.48076588e-02f,-6.97846934e-02f,-2.51597166e-03f,-1.14363432e-02f,
-3.64812016e-02f,-3.70817892e-02f,+2.71494612e-02f,-3.30068804e-02f,+7.53241107e-02f,
-4.91818413e-02f,+6.91686049e-02f,-6.16958886e-02f,+7.37100840e-03f,+4.39881757e-02f,
+3.78235504e-02f,-7.17193708e-02f,-1.56800523e-02f,+5.89711443e-02f,-5.11117280e-03f,
+5.95862940e-02f,+2.01219097e-02f,-6.51038140e-02f,+2.08113343e-02f,+7.15490803e-02f,
+5.54138944e-02f,+6.43108711e-02f,-7.63086230e-02f,-2.14511044e-02f,+7.13405535e-02f,
-3.44023518e-02f,+3.31510603e-03f,+1.61496624e-02f,-7.40812942e-02f,-1.44204721e-02f,
+2.37528831e-02f,-6.53292239e-02f,+3.96015346e-02f,-3.50386389e-02f,+5.32165170e-03f,
+3.74105424e-02f,+7.86503330e-02f,+6.83728084e-02f,+7.07644224e-03f,-3.91308554e-02f,
-2.12176330e-02f,+3.76456007e-02f,-6.74526095e-02f,-6.10344782e-02f,-6.37473315e-02f,
-3.88573371e-02f,-1.16642267e-02f,+8.96699727e-03f,+5.24301007e-02f,-4.76593189e-02f,
+2.66223401e-02f,-6.24191761e-03f,+1.98149681e-03f,-5.11085764e-02f,-2.82654390e-02f,
-6.00427911e-02f,-8.60871375e-03f,+4.63986173e-02f,-4.45045643e-02f,-7.28556141e-02f,
-4.01179977e-02f,+7.09018037e-02f,-3.35057117e-02f,+3.48902941e-02f,+3.57249975e-02f,
-7.14659467e-02f,+7.31221214e-02f,-8.00280944e-02f,-2.79106572e-02f,+1.92779303e-03f,
+5.00965044e-02f,-5.20250164e-02f,-1.39861926e-02f,+2.03837454e-02f,+8.69047642e-03f,
-3.08228731e-02f,-1.63279474e-02f,-5.45120761e-02f,+5.44400439e-02f,+1.33064166e-02f,
-7.68632665e-02f,+3.16423178e-03f,+4.18271348e-02f,-9.41195339e-03f,+5.54239228e-02f,
-3.67910750e-02f,-1.95112042e-02f,+4.04291153e-02f,-4.89897281e-03f,-6.23530410e-02f,
+8.20381194e-03f,+6.81830868e-02f,+5.86381480e-02f,-5.28133214e-02f,-4.62203920e-02f,
-1.76938474e-02f,+4.93477508e-02f,-1.60186738e-03f,-5.90035915e-02f,-6.34198934e-02f,
-7.00269789e-02f,+1.42274350e-02f,+5.91911003e-02f,-6.53228015e-02f,-3.55486497e-02f,
+4.02575657e-02f,+6.02535158e-03f,+2.25249007e-02f,+5.96213564e-02f,+2.80999839e-02f,
-6.24585301e-02f,+7.43900910e-02f,+4.22948748e-02f,+2.34884769e-03f,-3.64183486e-02f,
-2.43945867e-02f,-4.14200872e-03f,+2.89107561e-02f,-2.15604901e-04f,-1.95294768e-02f,
-7.30547756e-02f,-3.66418995e-02f,-5.22911325e-02f,+9.56909359e-03f,+6.03118613e-02f,
+2.12393329e-02f,-5.17121702e-03f,-7.60911033e-02f,-6.71999753e-02f,+3.59914154e-02f,
+3.67672518e-02f,-4.90155518e-02f,-2.74964720e-02f,-5.55844232e-02f,+4.97344360e-02f,
-9.35298949e-03f,-3.73166539e-02f,+4.45165113e-02f,+6.90991357e-02f,+5.14666811e-02f,
-1.47071630e-02f,-3.98503765e-02f,-7.57366121e-02f,+5.49102500e-02f,+2.05204338e-02f,
+6.82957396e-02f,+7.90674016e-02f,-7.54021183e-02f,-1.76538378e-02f,+5.90374544e-02f,
+3.29539925e-03f,+3.26922461e-02f,+3.13494951e-02f,+3.92436385e-02f,-2.56321803e-02f,
+6.77554533e-02f,+5.72163835e-02f,+1.40560418e-02f,+9.37422365e-03f,-5.63967302e-02f,
+1.69048235e-02f,+7.16239735e-02f,+3.80467325e-02f,-5.93696833e-02f,+6.49886951e-02f,
-1.53084323e-02f,-7.00652525e-02f,+3.21898386e-02f,+6.64328858e-02f,-3.30376662e-02f,
-6.30923212e-02f,-1.06005967e-02f,-1.50979683e-02f,+2.54684836e-02f,-4.25440855e-02f,
-2.99592428e-02f,+2.22044066e-02f,-7.38929585e-02f,+2.38370821e-02f,+7.74226412e-02f,
-5.41630201e-02f,+2.95645073e-02f,+4.40548137e-02f,-4.86344881e-02f,-3.22180726e-02f,
-3.39855142e-02f,+2.66459957e-02f,+5.64098135e-02f,-4.24256958e-02f,+6.60680905e-02f,
+5.19050583e-02f,+4.07479480e-02f,-5.55855855e-02f,+4.54953685e-02f,+7.80272111e-02f,
-5.48956692e-02f,-4.30440977e-02f,-5.59148379e-02f,-3.65704671e-02f,-2.35568918e-02f,
-4.29833345e-02f,+3.72731239e-02f,+4.27137017e-02f,-3.43435630e-02f,+2.12098658e-03f,
+2.48140916e-02f,+4.80303839e-02f,+6.36428520e-02f,+1.75503790e-02f,-7.43629038e-03f,
-2.95190848e-02f,+5.98235503e-02f,+4.36751842e-02f,-8.00234154e-02f,-2.13579722e-02f,
-7.63524249e-02f,-3.18037868e-02f,+3.52809280e-02f,+5.44553027e-02f,+1.84530318e-02f,
+1.78699642e-02f,+4.09535095e-02f,-6.45145774e-05f,+3.66464630e-02f,-5.07937074e-02f,
+5.16026244e-02f,+8.54445249e-03f,-8.06560665e-02f,+6.54601082e-02f,-3.55702490e-02f,
-5.40910810e-02f,+1.03359744e-02f,+1.67351961e-03f,+1.88637748e-02f,+3.20897624e-02f,
-4.79708947e-02f,+4.58866283e-02f,+2.27214396e-02f,-5.92436343e-02f,-3.88444364e-02f,
-1.76180005e-02f,+7.68551454e-02f,+4.90260199e-02f,+7.07276911e-03f,+5.80879524e-02f,
-3.93681005e-02f,+4.37678322e-02f,+3.22708040e-02f,-2.30681375e-02f,-5.01785763e-02f,
-2.63262913e-02f,+6.19134828e-02f,+7.56044015e-02f,+3.70551199e-02f,-2.50249580e-02f,
-1.05775893e-02f,-2.74895281e-02f,-2.96194889e-02f,+1.64866149e-02f,-2.92748213e-02f,
-7.64683187e-02f,-1.26723498e-02f,-1.75412521e-02f,-4.76658717e-02f,+8.01444128e-02f,
+3.39351222e-02f,-5.46849221e-02f,+7.63624385e-02f,+3.05144414e-02f,-7.94425830e-02f,
+6.87594935e-02f,+4.38016653e-03f,+2.74593011e-02f,-4.12499681e-02f,-3.52339000e-02f,
+6.03941455e-02f,-8.06533545e-02f,+7.77203962e-02f,+5.41483089e-02f,-4.54463586e-02f,
-2.62497105e-02f,+6.29321262e-02f,-4.10658121e-03f,-3.95745337e-02f,-7.26009905e-03f,
-6.01905137e-02f,-5.14576584e-03f,-3.36855650e-03f,-1.65581107e-02f,-6.99891746e-02f,
-7.99693167e-03f,-3.69743258e-02f,-3.92328277e-02f,+6.42844364e-02f,+5.07206544e-02f,
-1.33954436e-02f,-3.28800976e-02f,+1.38766989e-02f,-7.21001998e-02f,-2.42500007e-03f,
-1.68909058e-02f,-7.42626712e-02f,+7.70695284e-02f,-6.11819923e-02f,-8.54209810e-03f,
+3.70708257e-02f,-5.70645966e-02f,-1.91186741e-02f,-2.17319354e-02f,+6.37799576e-02f,
-7.11624324e-02f,-3.12407911e-02f,-4.98691052e-02f,-2.10083947e-02f,-4.36395630e-02f,
+2.25734040e-02f,-7.54176900e-02f,+4.18169051e-02f,-2.88935266e-02f,-4.86685634e-02f,
-6.10310547e-02f,+6.96140155e-02f,+6.73119724e-03f,+7.19050542e-02f,-4.01045606e-02f,
+2.83175781e-02f,+1.78902671e-02f,-2.10401490e-02f,+7.50004873e-02f,-3.97883989e-02f,
-3.46967578e-03f,+1.14059001e-02f,-6.46421537e-02f,+9.28573310e-03f,+3.97927836e-02f,
-6.48671538e-02f,-3.95943187e-02f,-1.41899586e-02f,+7.88450167e-02f,-8.02112445e-02f,
+2.41347179e-02f,+3.51533294e-04f,-7.15212300e-02f,-6.69281557e-02f,-2.10413672e-02f,
+6.60332218e-02f,-3.29989530e-02f,-1.66687816e-02f,+3.10425535e-02f,+6.01950213e-02f,
+7.11458549e-02f,-1.30633712e-02f,+6.82907179e-02f,-3.74440104e-03f,+7.48639330e-02f,
+2.71500424e-02f,-6.34942353e-02f,-4.69020866e-02f,-8.34337622e-03f,+2.87779421e-02f,
-8.95403326e-04f,-2.35811211e-02f,-6.29693568e-02f,-3.02657560e-02f,+4.50297371e-02f,
-6.13317080e-02f,-2.90901959e-03f,-7.25951865e-02f,+4.96782362e-04f,+6.95392862e-02f,
+2.57733464e-03f,-5.02209067e-02f,-2.67231911e-02f,-7.59161338e-02f,+3.28227431e-02f,
-5.23023680e-02f,-2.24705450e-02f,-7.45287985e-02f,-3.44294831e-02f,+4.23311517e-02f,
-7.85590410e-02f,+2.47973278e-02f,-6.51315302e-02f,-7.15698451e-02f,+1.83511972e-02f,
+4.35836613e-03f,+1.59715414e-02f,-1.68533474e-02f,-9.89946723e-03f,+4.46941629e-02f,
-5.02151847e-02f,-1.15164965e-02f,-1.81247815e-02f,-7.99400434e-02f,+8.69598985e-03f,
+4.01426330e-02f,+4.22798842e-02f,+5.41008785e-02f,+6.16522208e-02f,-2.42484100e-02f,
-3.15277912e-02f,-6.55256435e-02f,-1.03795454e-02f,-7.89986774e-02f,-7.91429579e-02f,
-7.45587945e-02f,+4.47768793e-02f,-4.58647422e-02f,-3.22054811e-02f,-4.92730588e-02f,
+6.20965436e-02f,+3.31355780e-02f,-3.20685096e-02f,+4.84060273e-02f,+4.17868048e-03f,
+7.15721920e-02f,-7.85104036e-02f,+7.60645941e-02f,+3.89255807e-02f,+4.71958891e-02f,
+2.37538144e-02f,+2.55927667e-02f,+4.19440120e-03f,-5.72904944e-03f,+5.91869652e-03f,
-6.81284070e-02f,+1.99795216e-02f,-4.26747948e-02f,+3.95023450e-02f,-3.99311334e-02f,
+5.23085967e-02f,-7.46993721e-03f,-7.90471733e-02f,+5.53139374e-02f,-2.07563974e-02f,
-4.20070216e-02f,+2.47908458e-02f,+3.89434397e-03f,+4.94303629e-02f,-4.02883515e-02f,
+4.74585220e-02f,+5.51242381e-03f,+3.23503837e-02f,+6.30003586e-02f,-1.53419077e-02f,
-5.13401330e-02f,+7.20278546e-02f,+3.46716791e-02f,-6.58786073e-02f,+2.30531320e-02f,
-3.44858952e-02f,+3.51295844e-02f,-1.19194686e-02f,-2.45704502e-02f,+1.60141215e-02f,
+3.89860496e-02f,+2.83642933e-02f,+1.96116269e-02f,+8.00307021e-02f,-6.34590536e-03f,
-1.51824206e-02f,+4.24426347e-02f,-3.61162461e-02f,+3.17093581e-02f,-2.64978223e-02f,
+1.40607059e-02f,+3.78960297e-02f,-5.02395630e-03f,+2.11454481e-02f,-4.24264297e-02f,
+3.03930417e-02f,-7.84369335e-02f,-1.26026347e-02f,-3.86864692e-03f,+2.59291232e-02f,
+6.07473478e-02f,+6.21374175e-02f,+2.04906613e-03f,+3.25096548e-02f,+3.89336050e-03f,
+1.60316825e-02f,+7.85087422e-02f,-7.25830570e-02f,+6.78245351e-02f,-4.81362566e-02f,
-1.39914453e-04f,-4.87032570e-02f,-5.83206192e-02f,+1.98149681e-03f,-6.74996600e-02f,
-6.15652353e-02f,+7.25475922e-02f,+7.29273334e-02f,+3.96791175e-02f,-7.72666186e-02f,
+7.21222237e-02f,+1.52318701e-02f,-1.88276321e-02f,-5.96222989e-02f,+4.06957492e-02f,
+7.66682625e-03f,-6.59518614e-02f,-3.02464925e-02f,-4.45625223e-02f,+6.91994801e-02f,
-7.02783391e-02f,+3.81275862e-02f,-7.80774951e-02f,+3.87693048e-02f,+4.09837142e-02f,
+3.09440270e-02f,-4.97075319e-02f,-1.43062025e-02f,-7.49648437e-02f,+2.76272744e-02f,
-4.21098433e-02f,+2.14312673e-02f,+1.18433759e-02f,+7.92518258e-05f,-6.61356300e-02f,
+2.62508690e-02f,-7.06585348e-02f,-3.56471390e-02f,+7.44938105e-03f,+4.69582006e-02f,
+4.71883938e-02f,-6.45035803e-02f,+5.54056838e-02f,-2.15282477e-02f,+4.40702513e-02f,
-2.77821347e-02f,-3.91252488e-02f,-5.25940061e-02f,-1.31084770e-03f,-5.48529699e-02f,
-4.06617150e-02f,+5.51084951e-02f,-7.97697157e-02f,+2.19989568e-02f,-5.78351915e-02f,
+7.07191005e-02f,+2.87180170e-02f,+2.36280560e-02f,+1.78213865e-02f,+6.31518438e-02f,
-4.35342453e-02f,+7.98270926e-02f,+4.14106250e-03f,-8.99925828e-04f,+4.01255190e-02f,
+5.81281260e-02f,-2.62207240e-02f,+1.95813626e-02f,-4.18395512e-02f,-8.08992609e-02f,
-7.77417421e-02f,-8.39804113e-03f,+5.84779754e-02f,+4.56152186e-02f,+3.79267782e-02f,
+3.27193961e-02f,+7.47533217e-02f,+7.60501400e-02f,+6.75554648e-02f,+3.25808227e-02f,
+2.59634852e-02f,+3.88647392e-02f,+6.87959269e-02f,+3.20128351e-02f,+7.29042068e-02f,
-1.83051303e-02f,+4.88962457e-02f,+7.92971030e-02f,-6.49785995e-02f,+4.29903716e-02f,
+8.07654783e-02f,-3.51056866e-02f,+6.07817397e-02f,-6.60520121e-02f,-5.16715497e-02f,
-2.77497657e-02f,+7.78513402e-03f,-2.11505517e-02f,-7.41286725e-02f,-7.07393289e-02f,
-6.22855127e-02f,-2.34823823e-02f,-4.42533791e-02f,+4.51739058e-02f,-4.41159792e-02f,
-4.12186012e-02f,+5.68567291e-02f,-4.68096696e-02f,+1.72788650e-02f,+4.79423180e-02f,
-6.67749941e-02f,-4.74626645e-02f,-7.18112662e-02f,-1.65769830e-02f,-2.59968638e-02f,
+1.08747408e-02f,-3.97318713e-02f,-4.79467213e-02f,+4.90859896e-03f,+4.12328169e-02f,
-4.35011573e-02f,-3.13802771e-02f,+3.87687832e-02f,+4.82014492e-02f,-7.78359994e-02f,
-4.94635105e-03f,-4.70287725e-02f,-5.67391142e-02f,-1.80019662e-02f,-1.65533945e-02f,
+6.05977327e-03f,-2.66130604e-02f,+1.98877007e-02f,-3.25484574e-03f,-4.41470742e-02f,
+6.13061264e-02f,-1.40659660e-02f,-2.65161358e-02f,+3.64476070e-02f,-2.23843344e-02f,
+6.93579093e-02f,+6.97822496e-02f,-1.14412904e-02f,+3.80088836e-02f,-7.14954138e-02f,
-9.22466069e-03f,+2.53605768e-02f,-2.37782560e-02f,-4.47839834e-02f,+4.72423434e-03f,
+1.10691488e-02f,-8.09638128e-02f,-2.98535079e-03f,-9.73027945e-03f,+5.67226186e-02f,
+7.82144889e-02f,+7.72533193e-02f,+3.53619009e-02f,+5.63472733e-02f,+6.20022044e-02f,
+5.76030537e-02f,+1.23836696e-02f,-3.70508283e-02f,-5.60774356e-02f,-3.78664993e-02f,
+9.43581760e-03f,+6.53545931e-02f,+4.40931097e-02f,+4.24995497e-02f,-7.61353299e-02f,
+7.47920349e-02f,-4.52886559e-02f,-2.02626511e-02f,-8.08753818e-02f,+4.89538684e-02f,
-7.02326819e-02f,+3.59133705e-02f,+1.51732937e-02f,+2.58503109e-03f,-7.59177357e-02f,
+4.67471555e-02f,-5.88791855e-02f,+7.13930950e-02f,+4.65383604e-02f,+4.43535075e-02f,
+4.07927111e-02f,+5.97210974e-03f,-3.52769271e-02f,+6.26299530e-03f,-3.11460905e-02f,
+5.64723834e-02f,+5.21509871e-02f,-5.55254519e-03f,-3.52054834e-04f,+6.88508973e-02f,
+2.07186267e-02f,-1.65432766e-02f,+7.55988285e-02f,+6.33487478e-02f,+7.46250823e-02f,
-6.32655397e-02f,+2.51948833e-03f,-5.07721081e-02f,-8.68692249e-03f,+4.25472930e-02f,
-4.38118279e-02f,-4.34156805e-02f,+2.03572139e-02f,+2.29413137e-02f,-1.67961419e-02f,
+3.47338095e-02f,+5.79223409e-02f,+2.71197632e-02f,+1.94258839e-02f,+1.98105797e-02f,
+8.43317807e-03f,-6.32829592e-02f,-7.96053931e-02f,+7.63525441e-02f,-1.37834325e-02f,
+8.51763040e-03f,-7.96790197e-02f,+1.94261223e-03f,-1.08492523e-02f,-2.79620402e-02f,
-4.04889472e-02f,+2.28569433e-02f,+4.10069227e-02f,-9.16299224e-03f,-5.68043999e-02f,
+2.69852802e-02f,+2.39020810e-02f,-8.06610286e-03f,-4.46600467e-03f,-5.30429445e-02f,
+5.81476614e-02f,-4.23964746e-02f,+7.36916810e-03f,+4.14570197e-02f,-5.60929626e-02f,
+3.05958018e-02f,+4.16023284e-02f,+8.01503435e-02f,-5.98177910e-02f,+2.48445943e-02f,
-7.28418082e-02f,-1.81102827e-02f,-2.64317058e-02f,-4.07081470e-02f,+7.48666003e-02f,
+1.52285397e-03f,-4.48264182e-04f,+5.10760024e-02f,-6.77469969e-02f,+4.36155796e-02f,
+7.33883306e-02f,+5.84164634e-02f,-3.58845294e-03f,-3.18492129e-02f,+4.51051667e-02f,
+2.20287219e-02f,+3.73842791e-02f,+6.23170510e-02f,-8.07224363e-02f,-3.91753018e-03f,
-1.92071274e-02f,-4.71210554e-02f,-1.61441192e-02f,+5.84773794e-02f,+6.39580265e-02f,
-1.20062605e-02f,+6.94223717e-02f,+6.27210513e-02f,+6.63949773e-02f,-3.23462076e-02f,
-4.86230627e-02f,-5.35886511e-02f,+4.35126424e-02f,-7.78102800e-02f,+1.61195770e-02f,
+6.36368990e-04f,+1.12370625e-02f,-2.94093043e-03f,+4.76549640e-02f,+1.30929574e-02f,
+6.91130087e-02f,-2.47613974e-02f,+1.47912279e-02f,-4.30633947e-02f,-7.63283446e-02f,
-2.97508389e-03f,-2.08584853e-02f,-7.54666328e-02f,+5.15616462e-02f,+5.15906587e-02f,
-4.97545078e-02f,+1.95286274e-02f,+8.00033137e-02f,+7.30504468e-02f,+4.03420925e-02f,
+6.93869665e-02f,+7.20353946e-02f,+3.10396180e-02f,-7.32067749e-02f,-4.97651808e-02f,
-2.14993171e-02f,-1.22338161e-02f,-3.30391563e-02f,+7.85548016e-02f,-7.53204152e-02f,
+1.64126083e-02f,+3.52165699e-02f,-7.58355111e-03f,+5.49653843e-02f,+4.09674942e-02f,
+4.42452207e-02f,-6.72127753e-02f,+7.20374659e-02f,+2.14430988e-02f,+1.45161971e-02f,
+7.19193742e-02f,-5.42470813e-02f,+3.06766927e-02f,-6.92601949e-02f,+7.17618838e-02f,
-1.57503486e-02f,+3.12699899e-02f,-1.71015561e-02f,+3.12111676e-02f,+7.24035427e-02f,
+6.32480308e-02f,+4.95193973e-02f,-3.83005291e-02f,+4.58174571e-02f,+5.31897694e-03f,
-5.18717021e-02f,+7.75415972e-02f,-2.99291909e-02f,-6.89019784e-02f,+1.52572617e-02f,
+9.07277316e-03f,+6.68087825e-02f,+7.18551055e-02f,-2.72880420e-02f,-7.57892728e-02f,
-7.64316171e-02f,+2.38052160e-02f,+7.90108815e-02f,-1.67366415e-02f,-7.85536021e-02f,
-6.40303269e-02f,+2.88408101e-02f,+2.81566009e-02f,-1.90418214e-03f,-1.41955689e-02f,
+1.75052136e-03f,+7.16009662e-02f,-5.68540208e-02f,+5.46628237e-03f,+6.26387671e-02f,
-7.17077851e-02f,+6.53537139e-02f,+1.98284090e-02f,-5.23329377e-02f,-2.67283134e-02f,
+5.68458214e-02f,-1.02471113e-02f,+2.34784335e-02f,-4.97838818e-02f,-5.96200004e-02f,
-4.72745635e-02f,+6.95885941e-02f,-7.47586340e-02f,+5.38763478e-02f,+4.17596474e-02f,
-7.16633126e-02f,-3.28048915e-02f,-6.36129677e-02f,-2.09188983e-02f,+1.10851750e-02f,
+1.03192106e-02f,-6.69031590e-03f,-5.15818782e-02f,+3.38634104e-02f,-1.84727162e-02f,
+2.36081555e-02f,-2.17053257e-02f,-1.13193244e-02f,+3.87889743e-02f,-2.91212164e-02f,
+3.22104171e-02f,-7.46176988e-02f,-4.60358299e-02f,+5.99532351e-02f,-2.84867845e-02f,
+3.32987532e-02f,-7.02941418e-02f,+2.34750137e-02f,+1.51029974e-03f,-4.53991145e-02f,
+1.17007717e-02f,+3.57742086e-02f,-2.03678310e-02f,-5.65314293e-03f,+5.56074008e-02f,
+3.01940292e-02f,-1.69718936e-02f,-6.95891976e-02f,-6.85414672e-02f,+3.76808122e-02f,
-2.78746895e-02f,-4.52548899e-02f,+4.81855497e-02f,-4.98716980e-02f,+4.89204600e-02f,
-3.68168727e-02f,+3.87181193e-02f,+5.69018498e-02f,-8.03207606e-02f,-5.22203147e-02f,
-3.89253274e-02f,-4.79997694e-02f,+6.36693016e-02f,-2.23512836e-02f,-3.48854996e-02f,
-2.15754882e-02f,-1.88095905e-02f,+6.91920891e-02f,-3.34067009e-02f,-6.36887401e-02f,
-6.98375627e-02f,-3.48648429e-03f,+1.54658630e-02f,+4.92153391e-02f,-7.81044364e-02f,
+4.40915897e-02f,+3.45766470e-02f,+1.69199854e-02f,-5.77092022e-02f,-1.12628415e-02f,
+7.57509395e-02f,-4.20955531e-02f,-2.86872461e-02f,+5.36176637e-02f,-3.43668275e-02f,
-2.32111439e-02f,+3.11863571e-02f,+1.71607137e-02f,+5.42952344e-02f,-1.32314861e-03f,
-5.19608110e-02f,-8.37514549e-03f,-7.60165602e-03f,-5.59820570e-02f,-1.12759918e-02f,
+3.84672433e-02f,+7.47158006e-02f,+6.45686164e-02f,-8.00535977e-02f,+5.08212075e-02f,
-6.28317147e-03f,-4.88957316e-02f,+2.22289339e-02f,+7.74272904e-02f,+4.59784344e-02f,
-1.56565756e-02f,+6.48457631e-02f,+7.61424229e-02f,+8.57166946e-04f,+2.47240961e-02f,
-1.94777660e-02f,+7.79778510e-03f,-5.18570840e-02f,+6.56765774e-02f,+8.24365020e-03f,
+3.31384987e-02f,-9.84487683e-03f,-1.65278465e-02f,-5.21286875e-02f,-7.55940899e-02f,
-3.14368047e-02f,+6.41424879e-02f,+2.92190686e-02f,+5.01806661e-02f,-7.05165714e-02f,
-8.00299272e-02f,+1.01860240e-02f,-5.91416284e-02f,-1.28178671e-02f,+2.52058133e-02f,
+1.79656297e-02f,+1.00767985e-02f,+3.30026820e-02f,+7.38822594e-02f,+6.79900423e-02f,
-3.36400941e-02f,-2.57266685e-02f,+2.61129141e-02f,-1.27274469e-02f,-5.21175489e-02f,
+5.86873665e-02f,-2.53453851e-03f,+4.77257892e-02f,-6.91163391e-02f,-2.13173814e-02f,
+4.14785817e-02f,+7.92104527e-02f,-4.90759052e-02f,-5.12381010e-02f,+2.44228616e-02f,
-1.66722238e-02f,-2.07739770e-02f,-2.66981870e-02f,-1.17874891e-02f,-1.00190789e-02f,
+6.05926141e-02f,-7.36394152e-02f,-1.30031109e-02f,+5.52441701e-02f,-3.50371003e-03f,
-3.32774036e-02f,+2.90322378e-02f,+3.95140275e-02f,+3.28774005e-03f,+6.00776598e-02f,
+5.39103225e-02f,-1.67470053e-02f,+9.52184945e-03f,-2.95179039e-02f,+5.03181592e-02f,
+2.50549689e-02f,+6.32446930e-02f,-3.71289551e-02f,+6.76080585e-03f,+6.57823756e-02f,
+1.26668587e-02f,+7.22257271e-02f,-6.82955086e-02f,+5.56191728e-02f,+3.88160646e-02f,
+5.10414466e-02f,-7.36427307e-03f,+7.81723186e-02f,+2.19084769e-02f,+4.13578749e-03f,
-3.29086035e-02f,-2.79843174e-02f,+7.11170360e-02f,+6.46718219e-02f,-6.63131922e-02f,
-5.26681691e-02f,+1.04507282e-02f,+1.26018226e-02f,-4.52746525e-02f,-1.94806121e-02f,
+6.00454137e-02f,-5.07755876e-02f,+7.40418956e-02f,+3.56297344e-02f,+3.64483669e-02f,
-1.77985877e-02f,-9.43103433e-03f,+1.76615939e-02f,+3.58041450e-02f,+1.09949484e-02f,
+7.80631229e-02f,+4.72228900e-02f,+6.53810874e-02f,+2.29019672e-03f,-8.63381475e-03f,
+2.59919688e-02f,+6.31091371e-02f,-2.09532008e-02f,+6.79499283e-02f,+6.38247952e-02f,
-6.90921471e-02f,-4.57257591e-02f,-2.09605880e-02f,-6.04736879e-02f,-6.69095665e-03f,
+1.40331239e-02f,-2.83454992e-02f,+7.10176304e-02f,-1.66317150e-02f,-5.93556985e-02f,
+2.53890976e-02f,+5.28767183e-02f,-6.59125075e-02f,+9.78334248e-03f,-6.05626628e-02f,
-4.19801027e-02f,-3.23400982e-02f,+4.96556237e-02f,-2.22217962e-02f,-6.40805513e-02f,
-3.55750471e-02f,+4.02944982e-02f,-3.36891934e-02f,+2.94164568e-03f,-6.75220340e-02f,
+5.46574965e-02f,-3.09079587e-02f,+6.30925819e-02f,+6.43889233e-02f,+2.22941488e-03f,
-7.37339035e-02f,-1.27088428e-02f,+6.81644902e-02f,+7.98837319e-02f,-4.37103212e-02f,
+1.61004812e-03f,-6.86893538e-02f,+5.52321225e-03f,-5.12508675e-02f,+3.35947052e-02f,
-6.99788481e-02f,+5.34528717e-02f,-6.26912862e-02f,-3.93270031e-02f,-4.44686338e-02f,
-6.36070371e-02f,-5.75246736e-02f,-1.63283870e-02f,-3.83405387e-02f,+6.60179034e-02f,
-4.17160578e-02f,-9.01174545e-03f,+5.64549491e-02f,+1.83147639e-02f,-6.21584803e-02f,
+2.39119455e-02f,-3.13548297e-02f,-6.19417131e-02f,-3.22521254e-02f,-7.28700012e-02f,
-4.53186668e-02f,-2.83551700e-02f,+4.87936288e-03f,+6.62823096e-02f,+1.17410198e-02f,
-3.69658582e-02f,+1.94492415e-02f,+1.62575394e-03f,-7.26412460e-02f,+2.64477730e-02f,
-1.54485777e-02f,+3.96784395e-02f,+5.36093190e-02f,+5.10351434e-02f,-4.94753383e-02f,
-4.03769761e-02f,+6.11849949e-02f,-3.09952348e-03f,-5.62582836e-02f,+7.41542876e-03f,
+2.49412209e-02f,+4.45298627e-02f,-3.42133008e-02f,-7.11447373e-02f,+3.02405357e-02f,
+5.62955439e-03f,+1.22537538e-02f,-1.35127306e-02f,+3.71977389e-02f,-8.59966129e-03f,
-7.54428431e-02f,-4.49103005e-02f,+3.76879871e-02f,-8.04105103e-02f,-5.33743836e-02f,
+6.84388056e-02f,-4.83931489e-02f,+3.43223512e-02f,-5.85333034e-02f,+6.39378950e-02f,
-7.93884620e-02f,+1.71418786e-02f,-4.44852561e-03f,+7.89232627e-02f,+3.29851285e-02f,
-1.40217170e-02f,+4.21483442e-02f,+5.25971130e-02f,-6.17222637e-02f,+4.84291986e-02f,
+7.42037520e-02f,+4.27330434e-02f,-5.11636510e-02f,+5.96680269e-02f,-2.13378817e-02f,
-7.77988508e-02f,+7.13365898e-02f,+7.91552737e-02f,-3.96504775e-02f,-5.35861589e-02f,
+3.89913917e-02f,+2.86567137e-02f,+4.43548709e-03f,-5.69701083e-02f,-6.42628968e-03f,
-5.67701310e-02f,+6.22513369e-02f,+4.38579470e-02f,+6.42462149e-02f,-5.67930862e-02f,
-3.00046504e-02f,+7.24246353e-03f,+1.53915882e-02f,-1.16147399e-02f,-5.55367023e-03f,
+3.26036811e-02f,+1.97173133e-02f,+4.30287197e-02f,-1.53857619e-02f,-4.27791029e-02f,
-3.82299051e-02f,-6.23134002e-02f,+1.95326135e-02f,+5.45781329e-02f,-2.43549459e-02f,
-3.35290134e-02f,-9.81422514e-03f,-7.09162503e-02f,-3.82415280e-02f,-5.26741073e-02f,
-1.37773603e-02f,+3.74818817e-02f,-4.81637567e-02f,-3.84769328e-02f,-2.28322074e-02f,
-2.36192010e-02f,-6.82638884e-02f,+4.26106155e-03f,-8.02453607e-02f,-6.97269887e-02f,
-7.28822052e-02f,+3.40509340e-02f,-7.00241029e-02f,+6.21119663e-02f,-4.67330888e-02f,
-7.16291815e-02f,+6.47930726e-02f,+3.31326202e-02f,+9.44174826e-04f,+4.87872213e-03f,
-7.69784600e-02f,+1.48902833e-03f,+3.85963246e-02f,+3.05872932e-02f,+2.49240696e-02f,
-4.07920741e-02f,-2.85428464e-02f,-7.21443743e-02f,-5.09079173e-02f,-4.22048569e-03f,
+7.95691535e-02f,+3.56905162e-02f,+4.69351187e-02f,-7.22584054e-02f,+3.26977000e-02f,
+7.45579675e-02f,+7.62500241e-02f,-1.09771118e-02f,+3.90229896e-02f,+3.16856056e-03f,
-3.92378345e-02f,+7.56067410e-02f,+6.90139011e-02f,+7.78132603e-02f,+6.12066314e-02f,
+7.34172761e-03f,+1.27636045e-02f,-1.10671893e-02f,-5.42110726e-02f,-2.39242241e-02f,
+6.91102371e-02f,+6.50110766e-02f,+5.07653728e-02f,+1.62690878e-04f,-4.68733683e-02f,
-3.87653224e-02f,-2.80852467e-02f,-6.61676526e-02f,-1.16629079e-02f,-3.79186347e-02f,
+4.78305593e-02f,-6.28119782e-02f,-5.99492490e-02f,-5.39648235e-02f,+4.93102446e-02f,
-9.17670131e-03f,+3.03123593e-02f,-6.21560439e-02f,-4.76275831e-02f,+1.30315423e-02f,
+3.56766135e-02f,+7.65630230e-02f,+7.80494288e-02f,+6.11765161e-02f,-6.25682175e-02f,
-2.97973417e-02f,+6.99446425e-02f,+7.14693144e-02f,+5.19764647e-02f,+8.06242153e-02f,
-2.87081115e-02f,+1.57858133e-02f,-3.93011682e-02f,-6.70075938e-02f,-7.60383531e-02f,
+5.50150871e-05f,-3.52037512e-02f,-1.88066885e-02f,+4.31079417e-03f,-3.16212140e-02f,
+1.48738623e-02f,-6.83806315e-02f,+4.84845862e-02f,-3.87625955e-02f,-4.69412096e-02f,
+4.93512228e-02f,+8.06108341e-02f,-2.12082155e-02f,-5.29446490e-02f,-5.06900735e-02f,
+5.20980582e-02f,+9.40705836e-03f,+8.97862017e-03f,-7.30232373e-02f,+8.02833214e-02f,
-5.68004325e-02f,-6.83509111e-02f,-2.61770971e-02f,+3.10737640e-03f,+3.21086943e-02f,
+4.62635681e-02f,-5.66493049e-02f,+2.55697966e-02f,-7.77696520e-02f,-1.83240622e-02f,
+2.33181790e-02f,-4.15063910e-02f,-2.77847089e-02f,+6.47262707e-02f,-1.43277869e-02f,
+2.68902555e-02f,-2.98133343e-02f,-7.39328340e-02f,-3.13630477e-02f,-4.03121561e-02f,
+1.07109025e-02f,-6.28981292e-02f,+3.18408012e-02f,+1.80900916e-02f,-7.35189915e-02f,
+1.71492994e-02f,-4.57094163e-02f,+6.29360303e-02f,+1.35026127e-03f,+6.93400428e-02f,
-2.19804794e-03f,-6.73553795e-02f,+2.07420886e-02f,+3.47158462e-02f,+6.63123205e-02f,
+6.84066862e-03f,+3.39032710e-02f,+7.12076351e-02f,+1.12461075e-02f,-2.36737132e-02f,
+1.80966258e-02f,-4.08421010e-02f,+1.77678913e-02f,-4.13574502e-02f,+6.50204495e-02f,
+4.82030883e-02f,-1.10943466e-02f,+5.72682098e-02f,+3.22700515e-02f,-8.96606594e-03f,
+4.25502509e-02f,+2.90446579e-02f,-1.30318701e-02f,-2.04728208e-02f,-1.70528814e-02f,
-3.34867239e-02f,+1.62131563e-02f,-4.87762988e-02f,+1.68167800e-03f,-7.36360252e-03f,
+2.41244733e-02f,-3.47191505e-02f,+1.15522519e-02f,+5.42869046e-02f,+2.32394114e-02f,
-7.52396956e-02f,+1.57116950e-02f,+9.83773917e-03f,+3.75452116e-02f,+5.64100370e-02f,
+5.54394051e-02f,-3.12122293e-02f,+7.73875043e-02f,+2.77644619e-02f,+2.59447098e-02f,
-2.69125886e-02f,+6.20855913e-02f,-4.56791334e-02f,-3.71550806e-02f,-8.05399790e-02f,
+6.14768937e-02f,-2.26394050e-02f,-2.94823013e-02f,-4.55763489e-02f,+1.11998767e-02f,
+4.28297520e-02f,-6.70534670e-02f,+5.22678718e-02f,+3.25824991e-02f,+7.62476996e-02f,
-3.64729241e-02f,-1.24470368e-02f,+5.05496934e-02f,-5.92574626e-02f,+7.80491307e-02f,
+1.98333040e-02f,-4.76954617e-02f,+6.87898323e-02f,+1.91981941e-02f,-5.76198548e-02f,
+4.86866459e-02f,-4.79138680e-02f,-1.99238621e-02f,-3.26831974e-02f,+4.57240716e-02f,
+1.48491636e-02f,+4.69435528e-02f,+7.29730725e-03f,+1.03373453e-02f,-1.37320459e-02f,
-5.23892529e-02f,+1.43718794e-02f,-4.47567143e-02f,+2.94115618e-02f,-6.82029352e-02f,
-6.50063753e-02f,+4.42896560e-02f,-4.70920093e-02f,+5.18589988e-02f,-5.13513088e-02f,
-1.02738366e-02f,-7.61992261e-02f,+3.37166935e-02f,+3.66514176e-02f,+3.16172913e-02f,
-6.01504669e-02f,-6.42826706e-02f,-5.00692949e-02f,-6.30325079e-02f,-7.05334693e-02f,
+4.37445119e-02f,-4.47169580e-02f,-4.24951389e-02f,-4.27517965e-02f,-1.79869235e-02f,
+6.62096962e-02f,-3.64258923e-02f,+6.34419397e-02f,-5.41864410e-02f,-7.28763789e-02f,
+2.09738389e-02f,-5.42060472e-02f,-4.12596762e-02f,+1.01334229e-02f,-4.03180346e-02f,
-5.69069311e-02f,-2.23678350e-03f,+7.43196979e-02f,+6.21298701e-03f,+1.60859078e-02f,
-5.22747897e-02f,-1.61353201e-02f,+1.67149231e-02f,+4.54223827e-02f,-4.74287271e-02f,
+6.55413046e-02f,-5.34686372e-02f,-7.98489600e-02f,+3.44631821e-03f,+2.28527859e-02f,
-4.55547683e-02f,+2.39003971e-02f,+6.28957525e-02f,+3.70698795e-02f,+4.67333198e-03f,
+8.48102570e-03f,-2.83887796e-02f,+1.78673342e-02f,+2.21067294e-02f,+2.94697881e-02f,
+3.58198136e-02f,+1.80849284e-02f,+3.64242122e-02f,-6.12025671e-02f,+2.43153796e-02f,
+2.84004584e-02f,+4.11440283e-02f,+7.12167844e-02f,+7.85938427e-02f,-3.83664519e-02f,
-1.24861002e-02f,+6.63973168e-02f,+1.42600387e-03f,+2.98453867e-03f,+6.01065084e-02f,
+3.31380516e-02f,+9.49022919e-03f,-4.26515676e-02f,-4.27499227e-02f,+3.77311110e-02f,
-8.07527751e-02f,-2.12158374e-02f,+4.01516110e-02f,+1.63356215e-02f,+8.05505142e-02f,
-7.26237893e-02f,-3.28780115e-02f,+3.28513607e-02f,-7.27048144e-02f,+5.94221130e-02f,
+1.54148713e-02f,+1.88795403e-02f,-4.18873131e-03f,-2.62549147e-02f,-3.43738683e-02f,
-4.10242304e-02f,+4.55461964e-02f,+5.11468947e-03f,-7.81213343e-02f,+7.50351921e-02f,
-5.63039817e-02f,+2.87469253e-02f,+6.74777851e-02f,-5.33425733e-02f,+6.00742176e-02f,
+6.11358508e-02f,+5.45444414e-02f,+5.33435419e-02f,-2.46702544e-02f,-3.54783721e-02f,
-5.43261766e-02f,+2.40879506e-03f,-3.07687446e-02f,-7.63769075e-02f,-6.09120876e-02f,
+7.98719749e-02f,-3.75505537e-03f,-1.13087445e-02f,+4.55929562e-02f,-3.23037021e-02f,
+4.66834530e-02f,-6.11533895e-02f,+2.86266804e-02f,-7.91847706e-04f,+3.58355120e-02f,
+1.54656172e-03f,-1.18330866e-03f,-6.26927018e-02f,+1.79395825e-03f,-1.24410614e-02f,
+5.77605590e-02f,+4.20738384e-02f,-2.32161880e-02f,-2.96707340e-02f,-4.09104265e-02f,
-1.41337067e-02f,+7.94874057e-02f,-4.21855710e-02f,+8.09422657e-02f,-4.10076566e-02f,
+2.54594684e-02f,+6.69544339e-02f,+4.38760184e-02f,+5.61495945e-02f,-3.37252207e-02f,
+7.07326904e-02f,-3.75002213e-02f,+5.69870695e-02f,+1.00854142e-02f,+3.71608287e-02f,
-3.47892344e-02f,+1.14795426e-02f,-1.38207898e-02f,-3.24902982e-02f,-7.25563690e-02f,
+2.84845829e-02f,+7.03120604e-02f,-1.75032336e-02f,+2.08264478e-02f,+9.51503403e-03f,
-5.21499217e-02f,+4.69222590e-02f,+1.38546163e-02f,+3.04062087e-02f,+6.58507571e-02f,
+8.67238194e-02f,+2.10867077e-03f,-2.81356238e-02f,-4.69889753e-02f,+4.38117199e-02f,
-2.09848043e-02f,-6.59847334e-02f,-7.47746304e-02f,+5.60226440e-02f,+5.10225594e-02f,
+4.09084074e-02f,+7.02565536e-02f,+5.79798147e-02f,-7.44951367e-02f,-4.23991047e-02f,
+5.39050624e-02f,+6.89334944e-02f,-7.89746791e-02f,+7.34580383e-02f,+4.38935310e-02f,
-5.73850470e-04f,-6.11229986e-02f,-2.72115953e-02f,+3.60956490e-02f,+3.95006239e-02f,
+5.68829589e-02f,+4.49757949e-02f,+2.91631352e-02f,-2.59061269e-02f,+3.03099193e-02f,
+1.41861392e-02f,+2.25569513e-02f,-7.02656806e-04f,-1.47852227e-02f,-4.53165136e-02f,
-5.84613234e-02f,-1.43802688e-02f,+3.32185961e-02f,+5.86939976e-02f,+1.60302743e-02f,
+2.76687108e-02f,+2.01473981e-02f,-7.82211348e-02f,+9.20965523e-03f,-4.01556492e-02f,
-1.44980848e-03f,+5.32937422e-02f,+7.91227743e-02f,+2.12874375e-02f,+1.94832904e-03f,
+5.39261624e-02f,+6.81766197e-02f,-4.44671549e-02f,-6.89130574e-02f,+3.78369913e-02f,
-7.61196837e-02f,+2.36747172e-02f,+3.16385552e-02f,-5.93095236e-02f,+4.88824062e-02f,
-1.79201644e-02f,+5.09480312e-02f,+2.74403319e-02f,-7.15173036e-02f,+2.43602842e-02f,
-3.81552917e-03f,-2.93193012e-02f,+6.40462860e-02f,-4.56152782e-02f,-7.02011585e-03f,
-1.22591499e-02f,+2.88681849e-03f,-1.78411305e-02f,-4.57424782e-02f,+4.29377556e-02f,
+6.89511746e-02f,-4.18173745e-02f,-6.77099824e-02f,+2.04404444e-02f,+2.75435373e-02f,
+6.52357563e-02f,+6.17536716e-02f,+8.93488452e-02f,-2.00731307e-03f,+5.91099560e-02f,
-1.86239630e-02f,-3.53938565e-02f,-2.79104766e-02f,+8.15240368e-02f,-7.15133250e-02f,
+2.60989740e-03f,-5.32301888e-03f,-5.11337109e-02f,+6.12717941e-02f,-6.43530488e-03f,
+2.24691499e-02f,+3.68597708e-03f,-5.67628294e-02f,-7.32862577e-02f,+5.70292138e-02f,
+1.08245322e-02f,-5.78427687e-02f,+4.48507406e-02f,-3.14413793e-02f,-6.05621981e-03f,
-7.39661753e-02f,-1.44185731e-02f,-6.51334450e-02f,-6.85947686e-02f,-5.86412698e-02f,
+8.09250027e-03f,+8.45657587e-02f,+3.56223434e-03f,-4.40132171e-02f,+1.02731795e-03f,
-2.29678862e-02f,-6.38336763e-02f,-7.16280490e-02f,-7.69274682e-02f,+6.69886172e-02f,
-1.66232456e-02f,-3.34520340e-02f,+2.24735513e-02f,-1.15181655e-02f,+5.93352541e-02f,
+2.32182946e-02f,+2.57328376e-02f,-7.50164166e-02f,+3.43622677e-02f,-7.98555464e-03f,
-1.27757676e-02f,+1.66356619e-02f,+6.64482266e-02f,-8.43927078e-03f,-7.34178722e-02f,
+3.50511409e-02f,+9.03697386e-02f,-6.71307072e-02f,+5.06314300e-02f,-4.43277285e-02f,
+5.25592938e-02f,+3.90653163e-02f,-7.38337487e-02f,+6.26021624e-03f,+3.86558706e-03f,
+8.91621411e-03f,-1.83975808e-02f,+2.03577615e-03f,-2.10944731e-02f,+5.11329174e-02f,
+3.05856876e-02f,+5.63107505e-02f,-7.32097179e-02f,+8.21667835e-02f,-4.99119200e-02f,
+1.33904014e-02f,+4.99219680e-03f,-5.28711900e-02f,-6.30677119e-02f,+6.95572719e-02f,
-2.00862847e-02f,-8.79541487e-02f,-7.97800422e-02f,+3.14240232e-02f,-3.25434655e-03f,
+2.56155990e-02f,-4.36076149e-02f,+2.10578442e-02f,+1.00254446e-01f,+7.73561075e-02f,
-9.25967097e-02f,-7.25158527e-02f,-9.78618767e-03f,+4.76926640e-02f,-4.92076389e-02f,
-1.47570213e-02f,+9.36728865e-02f,+5.26180156e-02f,-1.82142034e-02f,-7.64247850e-02f,
-2.55613844e-03f,+6.88538998e-02f,-6.85837641e-02f,+2.09663361e-02f,+1.22244339e-02f,
+4.34892206e-03f,-6.82341754e-02f,+1.59875881e-02f,-9.14882775e-03f,+3.67576182e-02f,
+4.26792055e-02f,-7.41307344e-03f,+5.41333184e-02f,+8.68851021e-02f,+2.25786082e-02f,
+5.00762276e-02f,-7.20875710e-03f,+1.36163905e-02f,+4.46302779e-02f,+7.34014995e-03f,
-7.63444752e-02f,-1.21909179e-04f,+1.67708099e-02f,+2.69253626e-02f,-2.95611210e-02f,
-3.79575342e-02f,-3.24582532e-02f,-5.81303518e-03f,+5.97520545e-02f,+1.27361575e-02f,
+9.55523178e-02f,-1.68084800e-02f,+3.62380743e-02f,+2.89030224e-02f,+6.03868924e-02f,
-3.61872502e-02f,+1.51519850e-02f,-3.68124656e-02f,+6.09308630e-02f,+3.16665284e-02f,
-5.28334677e-02f,+5.80757856e-03f,+1.45046115e-02f,-9.94071290e-02f,-7.59832934e-02f,
-2.38622427e-02f,-6.28492609e-02f,-2.63237357e-02f,-4.46669720e-02f,+3.76828611e-02f,
+2.37115542e-03f,-3.34982909e-02f,+9.45438966e-02f,-1.56630307e-01f,+7.48882741e-02f,
-1.53303578e-01f,+6.20974973e-02f,+1.14346527e-01f,+4.95167077e-03f,+1.76467687e-01f,
+7.32225180e-03f,+4.01766747e-02f,-9.60141569e-02f,-8.89410824e-03f,-2.48294994e-02f,
+5.07368371e-02f,-1.92539468e-02f,+9.89121422e-02f,+5.50540760e-02f,-2.27498442e-01f,
+2.69615725e-02f,+1.09337941e-02f,+1.00582093e-03f,+1.28537983e-01f,+1.97040085e-02f,
-4.91378866e-02f,+3.14987116e-02f,+9.68329608e-04f,-1.03664406e-01f,+2.44770553e-02f,
+1.83419555e-01f,+1.30408466e-01f,-1.75743178e-02f,-5.14622331e-02f,+8.66842493e-02f,
+5.70654646e-02f,-6.17994145e-02f,-9.91977751e-03f,+1.20455772e-02f,+3.50441486e-02f,
-7.03573599e-02f,+3.56947109e-02f,-3.03760543e-02f,-8.21447745e-03f,+1.75980091e-01f,
+7.04519823e-02f,+5.97369149e-02f,+1.67319939e-01f,-3.37258093e-02f,-7.94634894e-02f,
+4.21403795e-02f,+1.36175349e-01f,+9.03730839e-03f,+7.28953481e-02f,-1.63410604e-01f,
-5.85345626e-02f,-2.26820614e-02f,+2.94804215e-01f,-2.99037714e-02f,-1.27756745e-01f,
-3.39528508e-02f,+4.07087430e-02f,+1.56127075e-02f,-4.47551310e-02f,-1.02498248e-01f,
-8.09993967e-02f,+1.99153990e-01f,-7.61984587e-02f,-1.98361978e-01f,-1.90039515e-01f,
+8.57072696e-02f,-3.26972567e-02f,+5.72823435e-02f,+1.56355023e-01f,+1.92414060e-01f,
-2.89128721e-03f,+6.57175258e-02f,-7.83658698e-02f,+9.79260169e-03f,+2.11730659e-01f,
+2.08225064e-02f,+7.51845464e-02f,+2.08807588e-02f,+1.96019396e-01f,+4.88689244e-02f,
-1.40016690e-01f,+4.22981046e-02f,+3.52326259e-02f,+3.73213962e-02f,+6.40889555e-02f,
-1.10857561e-02f,+2.18146652e-01f,-2.46589687e-02f,-2.24097133e-01f,-5.68505228e-02f,
-4.05114740e-02f,-1.30029783e-01f,-8.77990872e-02f,-7.18309805e-02f,+1.50633499e-01f,
+8.88796151e-03f,+7.56801441e-02f,-1.43278912e-01f,+1.71923473e-01f,-7.79077634e-02f,
+2.18905985e-01f,+3.81612889e-02f,-2.35939845e-02f,+7.12630749e-02f,-9.34217945e-02f,
-2.44381815e-01f,+6.38737306e-02f,+2.04925865e-01f,+8.68663192e-05f,-6.50641546e-02f,
+4.05178741e-02f,-1.45887360e-01f,+1.01955988e-01f,-4.74207588e-02f,+7.12379590e-02f,
-4.36397158e-02f,-1.18943825e-01f,-2.13981748e-01f,+1.80232733e-01f,+1.54722631e-02f,
+1.93541020e-01f,+2.39722341e-01f,-8.15836415e-02f,-8.65556374e-02f,+3.80002260e-02f,
+7.83430561e-02f,-1.09955547e-02f,+2.56175697e-01f,-5.69398701e-02f,+7.82442614e-02f,
+6.28333613e-02f,+1.81438886e-02f,+6.59394935e-02f,-7.38014877e-02f,+5.06859981e-02f,
-8.24623108e-02f,+7.76456669e-02f,+4.91607711e-02f,+6.81723654e-02f,+4.23110798e-02f,
+1.13090575e-01f,+3.84210609e-02f,-1.73294753e-01f,-5.95741831e-02f,+1.01551391e-01f,
+5.26671670e-02f,+1.79309517e-01f,-6.74498901e-02f,+8.37451518e-02f,+7.14407414e-02f,
-3.99015062e-02f,-1.88719854e-01f,+1.04128219e-01f,+1.62749335e-01f,+2.11757258e-01f,
-5.45143411e-02f,-8.66374373e-02f,+1.10256471e-01f,-2.08092781e-04f,+1.61136426e-02f,
-5.28508686e-02f,-2.14995444e-03f,-8.21724832e-02f,+9.30130407e-02f,-7.06784874e-02f,
+1.14597104e-01f,-7.25350976e-02f,+1.03171982e-01f,+1.16184384e-01f,-3.45701724e-02f,
+1.29161760e-01f,+1.06027119e-01f,+1.96736529e-02f,-4.64926958e-02f,+1.00238629e-01f,
-7.34474212e-02f,-2.99102999e-02f,-1.74949929e-01f,-1.52663216e-01f,+6.50679171e-02f,
+1.22757435e-01f,-1.05918236e-01f,-1.34279624e-01f,+3.65918726e-02f,+7.63661489e-02f,
-4.14756611e-02f,-7.14837313e-02f,-1.34050295e-01f,+1.57652423e-02f,+2.24537298e-01f,
-5.86423390e-02f,-2.44852170e-01f,-1.59533218e-01f,+1.58339664e-01f,-4.01361771e-02f,
+1.32819131e-01f,+2.94377863e-01f,+1.56105772e-01f,+1.05038155e-02f,-5.60227633e-02f,
-3.31311971e-02f,-8.79295096e-02f,+1.68503419e-01f,-8.64490569e-02f,+5.68913445e-02f,
-2.84733810e-02f,+2.34600753e-01f,-6.09895512e-02f,-2.71257192e-01f,+2.34772600e-02f,
-6.57752827e-02f,+1.28634259e-01f,-2.11311840e-02f,-5.82486466e-02f,+2.33081400e-01f,
-9.56620499e-02f,-1.53258711e-01f,-7.00846836e-02f,+1.47951460e-02f,-9.09754261e-02f,
-3.11012063e-02f,-2.84784846e-02f,+1.72248423e-01f,+7.80618712e-02f,+1.15219034e-01f,
-2.94252515e-01f,+2.20942214e-01f,-5.93952788e-03f,+2.16828510e-01f,-7.20971869e-03f,
-2.84709111e-02f,+1.53380781e-01f,-1.00929782e-01f,-2.21401140e-01f,+8.03337917e-02f,
+2.15473145e-01f,+2.46334821e-03f,-5.32184951e-02f,+3.32259610e-02f,-6.56846389e-02f,
+1.68323070e-01f,+8.37154537e-02f,-4.59223986e-04f,+1.97290536e-03f,-6.23498783e-02f,
-1.21123321e-01f,+1.14028417e-01f,+1.79340970e-02f,+1.46044612e-01f,+1.81362957e-01f,
+9.42213833e-03f,-2.00302392e-01f,-4.07790281e-02f,+1.31854922e-01f,+1.07803047e-02f,
+5.12508936e-02f,-6.31504878e-02f,+4.72255014e-02f,-3.78877819e-02f,+1.60236433e-02f,
+7.89036453e-02f,+4.03903201e-02f,-4.03770506e-02f,-8.83174092e-02f,+4.35164347e-02f,
-2.52197981e-02f,-6.13525249e-02f,-5.34355901e-02f,+9.66603160e-02f,+5.27941845e-02f,
-1.43451914e-01f,-5.03398292e-02f,-4.63156439e-02f,+5.72654121e-02f,+1.06346205e-01f,
+2.06136387e-02f,-5.21601103e-02f,+1.17353881e-02f,+5.86152151e-02f,+2.33927574e-02f,
-2.81697921e-02f,+2.17968114e-02f,+2.58322284e-02f,-1.60596352e-02f,-9.12496299e-02f,
+7.79036582e-02f,+2.01999694e-02f,-7.08951652e-02f,-1.17137088e-02f,+3.69088501e-02f,
-5.07610179e-02f,-7.28926286e-02f,+4.41148877e-04f,+2.11915169e-02f,-9.35752783e-03f,
+5.83810434e-02f,+4.55999689e-04f,-2.64950898e-02f,+3.52117419e-02f,+4.65185707e-03f,
-2.08225697e-02f,+1.08208433e-01f,+1.83718745e-02f,-7.06449747e-02f,+4.36749272e-02f,
-1.13390520e-01f,-4.63406555e-03f,+1.57583784e-02f,+3.10080647e-02f,-1.11114338e-01f,
+2.30362359e-02f,+8.67130756e-02f,-2.30557043e-02f,-1.90055929e-03f,-2.19944753e-02f,
-9.24613550e-02f,+1.16835013e-02f,+1.47193432e-01f,+4.91496995e-02f,-1.96239233e-01f,
-1.55122980e-01f,+1.42417952e-01f,+6.69878870e-02f,+1.03241727e-01f,+1.27117947e-01f,
+1.87031031e-02f,+5.61617352e-02f,+7.86038414e-02f,+9.27035287e-02f,-7.41459578e-02f,
+1.05408274e-01f,+6.37101233e-02f,+2.13705748e-03f,+4.54612747e-02f,+1.84987430e-02f,
+3.31510901e-02f,-1.14317603e-01f,+3.73830497e-02f,+4.99482155e-02f,-2.30059661e-02f,
+7.67233269e-03f,+5.32641597e-02f,+6.99240118e-02f,-3.98897268e-02f,-9.97105315e-02f,
-1.98452664e-03f,+3.82331870e-02f,-7.86220506e-02f,-7.47707933e-02f,-6.57407492e-02f,
+5.55437468e-02f,-3.52840908e-02f,+1.05745263e-01f,-5.98288625e-02f,+1.19888090e-01f,
+3.19046751e-02f,+1.10413618e-01f,+7.76586309e-02f,-6.46586642e-02f,+8.48488510e-02f,
-8.31127018e-02f,-4.37835492e-02f,+5.35816364e-02f,+4.29314077e-02f,-2.33860663e-03f,
-9.97012854e-03f,-1.85802579e-02f,+4.74596284e-02f,-1.79110765e-02f,+7.61015192e-02f,
-7.09781945e-02f,-2.54366733e-02f,-6.38416037e-02f,-8.87368396e-02f,+1.55263692e-01f,
-1.63727887e-02f,+2.74086148e-02f,+1.94040939e-01f,-2.91842688e-02f,-1.18954547e-01f,
-5.44286072e-02f,+5.35802767e-02f,+4.20801044e-02f,+7.75896907e-02f,-6.80785626e-02f,
+5.66257313e-02f,+6.60908371e-02f,+7.11276308e-02f,+3.82796898e-02f,-2.58199759e-02f,
-1.76837035e-02f,+3.50427767e-03f,-3.25995288e-03f,-8.58704522e-02f,+1.00144453e-01f,
+2.00214460e-02f,+8.38551521e-02f,+2.04786640e-02f,-1.76558018e-01f,-3.77955362e-02f,
+7.72909746e-02f,-4.99335863e-02f,+1.47198483e-01f,-1.24624901e-01f,+5.32163791e-02f,
+8.10062066e-02f,+1.43854739e-02f,-5.82683682e-02f,+3.61916646e-02f,+5.52661391e-03f,
+7.74314851e-02f,+6.97767660e-02f,+1.11863567e-02f,+8.63469020e-02f,+1.34592177e-03f,
+8.98369309e-03f,+1.09153576e-01f,+4.09876257e-02f,-7.21334219e-02f,-4.82805781e-02f,
-2.61265803e-02f,+9.25135911e-02f,-9.78201404e-02f,+9.67226401e-02f,+9.66716856e-02f,
+5.26669063e-02f,+8.24489146e-02f,+2.07476933e-02f,-5.82044721e-02f,+9.97627601e-02f,
+9.42089707e-02f,-7.42059276e-02f,-3.64504717e-02f,-7.73939565e-02f,-1.58952266e-01f,
+2.83094496e-02f,+1.11324251e-01f,-1.40629664e-01f,-3.03629264e-02f,-2.52004862e-02f,
-1.27427466e-02f,+4.33471054e-02f,-1.46356866e-01f,-5.68138175e-02f,+3.43664289e-02f,
+2.59802397e-03f,-3.23546641e-02f,-1.69604644e-01f,-1.06625855e-01f,+1.42378494e-01f,
+1.36538995e-02f,+5.69932908e-02f,+2.09534839e-02f,+9.63807777e-02f,-5.22490405e-02f,
-6.13763593e-02f,+6.16443269e-02f,-1.01059519e-01f,+9.34126675e-02f,+1.07011795e-02f,
+5.12501374e-02f,+1.43594548e-01f,+9.19994488e-02f,-6.94708675e-02f,-1.45629048e-01f,
-6.40560016e-02f,-8.01589191e-02f,-5.84648959e-02f,+1.04721002e-01f,+6.40741736e-02f,
+1.25239894e-01f,-3.05369198e-02f,-4.88954820e-02f,-7.18142390e-02f,+4.78289202e-02f,
-8.12499821e-02f,-8.98761898e-02f,-4.17263433e-02f,+7.08021317e-03f,+1.44105377e-02f,
+1.60522640e-01f,-4.28720638e-02f,-2.81774043e-03f,-5.15860356e-02f,+4.95589562e-02f,
+6.55061603e-02f,+4.12523597e-02f,+8.79592746e-02f,-5.02191782e-02f,-1.91999301e-01f,
-1.08411768e-02f,+6.96137920e-02f,-2.47053206e-02f,+8.95824060e-02f,+4.63189371e-02f,
-3.34441848e-03f,+1.69017121e-01f,+1.81382205e-02f,-7.89879635e-02f,+5.78198768e-02f,
+4.93254848e-02f,-4.94686477e-02f,-2.07386054e-02f,+5.46383560e-02f,+1.86670478e-02f,
+1.97709054e-01f,-5.69461063e-02f,-1.23147750e-02f,-3.62332761e-02f,+3.09242606e-02f,
+4.22977991e-02f,+1.72477826e-01f,-9.41558480e-02f,-4.31766808e-02f,+4.74538356e-02f,
+1.26488833e-02f,+3.91708761e-02f,-1.54021218e-01f,+2.03914680e-02f,-9.36127675e-04f,
+3.76600251e-02f,+7.30687752e-04f,+1.18534096e-01f,+6.08780310e-02f,+3.01636457e-02f,
+3.43172289e-02f,-2.04172581e-01f,+4.63768616e-02f,+1.12342760e-02f,+6.53449520e-02f,
+2.37442270e-01f,-1.31988544e-02f,+5.48028201e-02f,+1.28102109e-01f,-3.32529992e-02f,
+8.01667385e-03f,-4.34497334e-02f,+5.27693927e-02f,+5.18077798e-03f,-7.29406700e-02f,
-8.98329541e-02f,+1.55294105e-01f,+4.93857712e-02f,+1.75471772e-02f,+1.44434065e-01f,
-9.68767330e-02f,-6.88091666e-02f,-7.75486529e-02f,+1.76732875e-02f,+4.74111885e-02f,
+2.14417223e-02f,+2.38667518e-01f,+1.58177257e-01f,+9.61194560e-02f,+1.24597058e-01f,
+1.50831491e-01f,+1.06472053e-01f,-3.40196257e-03f,+1.38655543e-01f,-7.16538206e-02f,
-9.59777236e-02f,-5.97673357e-02f,-1.54697344e-01f,+5.92874363e-02f,+9.11768973e-02f,
-3.38821523e-02f,-9.10042077e-02f,+2.65183728e-02f,+2.09039766e-02f,-1.37351364e-01f,
-5.34443147e-02f,-1.58027843e-01f,+1.79517064e-02f,+3.24980281e-02f,-1.18052959e-01f,
-7.15748742e-02f,-1.24442481e-01f,+1.46406487e-01f,+7.49362484e-02f,+4.71204482e-02f,
+3.10160108e-02f,+1.10103622e-01f,+3.48562896e-02f,+6.56153932e-02f,+1.12573225e-02f,
-1.07793823e-01f,+1.44179896e-01f,-3.56444530e-02f,-3.74381356e-02f,+2.15895787e-01f,
+1.44671276e-01f,-1.91200133e-02f,-2.13687867e-02f,+5.70182949e-02f,+3.19036655e-02f,
-3.08730919e-02f,+5.56337610e-02f,-3.04368287e-02f,+1.28437936e-01f,+7.45923119e-03f,
-1.77375868e-01f,-6.21771589e-02f,+1.65290590e-02f,-6.00461029e-02f,-4.55629714e-02f,
+1.91637024e-03f,+5.98106384e-02f,+6.09889440e-02f,+1.54476732e-01f,-1.98479295e-01f,
+1.15972303e-01f,-6.25193566e-02f,+5.03584445e-02f,-5.75205199e-02f,-4.69578207e-02f,
+5.33864871e-02f,-5.13402745e-02f,-4.97485623e-02f,+1.37812262e-02f,+6.08145185e-02f,
-1.04921773e-01f,+1.63707677e-02f,-6.84393942e-02f,+2.18944177e-02f,+1.62173212e-01f,
+5.14388038e-03f,-7.54093677e-02f,-5.82572706e-02f,+5.24845384e-02f,-1.13721050e-01f,
+1.32737324e-01f,-4.30494547e-02f,+1.90886796e-01f,+1.74338385e-01f,+7.68295005e-02f,
-4.51471731e-02f,+7.30319470e-02f,+1.92024887e-01f,-1.05575152e-01f,+2.74359640e-02f,
-3.47343683e-02f,-4.00552675e-02f,+9.24775153e-02f,-9.77834500e-03f,+1.73733868e-02f,
-4.05175053e-02f,-3.01979352e-02f,-1.97120562e-01f,-3.70987654e-02f,-5.24969362e-02f,
+7.96846151e-02f,+5.31837717e-02f,+1.66515350e-01f,-5.77945933e-02f,-1.81429714e-01f,
+4.80197854e-02f,-7.19650984e-02f,-7.93313086e-02f,+9.61891040e-02f,-7.77561441e-02f,
+3.35209072e-02f,+2.05197297e-02f,+2.54813898e-02f,+1.95030440e-02f,+4.21632156e-02f,
+1.60052091e-01f,+7.24814162e-02f,-7.94684887e-02f,-4.90801297e-02f,+1.77334547e-01f,
+5.90335764e-02f,-6.37417138e-02f,+8.07080790e-02f,-4.34057862e-02f,+8.54626521e-02f,
+6.71607628e-02f,-4.23358269e-02f,-3.40340063e-02f,-4.61140908e-02f,+3.16675991e-01f,
+9.17657465e-02f,+6.08930662e-02f,+9.10038203e-02f,+1.28938615e-01f,+7.67965391e-02f,
+8.20703804e-02f,+1.43778533e-01f,-2.75916774e-02f,+2.11727303e-02f,-1.05089583e-01f,
-1.25313550e-01f,+4.85638231e-02f,+1.08797051e-01f,-9.42916945e-02f,-2.09660292e-01f,
+2.07350161e-02f,-8.93075690e-02f,-9.17848572e-02f,+6.65059313e-02f,-1.50527075e-01f,
-7.92355277e-03f,+1.12995140e-01f,-4.60032839e-03f,-1.01513773e-01f,-6.47581816e-02f,
+1.01771325e-01f,+2.67536435e-02f,+1.73554927e-01f,+1.90563574e-02f,+2.08880350e-01f,
-8.60289484e-03f,-2.06321236e-02f,-6.46586493e-02f,-1.48105636e-01f,+1.74385190e-01f,
-9.00902674e-02f,+6.65196702e-02f,+2.50011653e-01f,+2.13929966e-01f,+6.12198077e-02f,
+2.44244225e-02f,-2.17707343e-02f,+3.86883803e-02f,+3.71742062e-02f,+1.26387134e-01f,
-7.18335360e-02f,+1.48006305e-01f,-9.69859585e-02f,-1.11391209e-01f,-4.52332757e-02f,
+3.43192518e-02f,-1.55306667e-01f,-1.35442063e-01f,-9.10745934e-02f,+1.84079334e-01f,
+1.48225993e-01f,+1.81882992e-01f,-1.32735983e-01f,-8.80411491e-02f,-1.01578817e-01f,
-1.84817184e-02f,-3.32967006e-02f,+8.33509490e-02f,+1.45449087e-01f,-6.11834861e-02f,
-4.44754846e-02f,+9.78200138e-03f,+3.03177852e-02f,+4.00939770e-02f,-4.16883081e-02f,
+1.33649993e-03f,+5.00414297e-02f,+5.04378304e-02f,+6.99402625e-03f,-1.61898099e-02f,
+7.04681203e-02f,-3.37002985e-02f,-8.44648108e-02f,+1.14442103e-01f,+4.37146351e-02f,
+4.07345891e-02f,-6.08187076e-03f,-4.38998602e-02f,-1.15354665e-01f,-4.36894000e-02f,
+2.14736879e-01f,-9.90671590e-02f,+1.57372639e-01f,-1.10866286e-01f,+2.94478182e-02f,
+1.34905174e-01f,+2.86534289e-03f,+8.80538020e-03f,-5.12226447e-02f,-2.21393928e-02f,
-1.55910641e-01f,-9.05138105e-02f,-7.08883479e-02f,+1.16101600e-01f,-5.42570427e-02f,
+1.07464515e-01f,-1.56136937e-02f,-7.83280805e-02f,+1.72352418e-01f,-6.39687032e-02f,
+2.40134783e-02f,+1.86336443e-01f,-2.15910897e-02f,+3.91550921e-02f,+7.28104413e-02f,
-3.19415145e-02f,-5.42390309e-02f,+6.99323118e-02f,+2.45655969e-01f,+1.21331342e-01f,
+7.33745173e-02f,-6.09944202e-02f,+3.30025814e-02f,+4.28286307e-02f,-1.13318868e-01f,
+1.47689190e-02f,-1.09169995e-02f,-4.04942408e-03f,+1.82823204e-02f,+1.10610537e-02f,
+3.64250988e-02f,-7.44216889e-02f,+1.73223987e-01f,+1.23698421e-01f,+1.33034280e-02f,
+1.25225827e-01f,+9.36025660e-03f,-9.51926634e-02f,+1.49667278e-01f,+1.92831457e-01f,
-2.06558630e-02f,+2.82670949e-02f,-1.15492232e-01f,-1.88643903e-01f,+5.57365604e-02f,
+8.43690783e-02f,-1.13804214e-01f,-1.27177611e-01f,-8.01361874e-02f,-4.67856452e-02f,
-2.93058548e-02f,-2.96244118e-03f,-1.03809804e-01f,-6.73977882e-02f,+1.15054891e-01f,
-4.88444716e-02f,-1.07813224e-01f,-9.53966081e-02f,+2.20100254e-01f,-8.81303251e-02f,
+1.61788315e-01f,+1.43334210e-01f,+2.35167474e-01f,-6.30494952e-03f,-7.62271509e-02f,
-8.08013231e-02f,-1.57849237e-01f,+2.33027205e-01f,-2.55889576e-02f,-1.34062367e-02f,
+2.52792418e-01f,+1.48895919e-01f,-1.51712835e-01f,-5.26193855e-03f,+4.03527543e-02f,
+6.97205290e-02f,-1.16818517e-01f,+1.15587473e-01f,+1.16242655e-02f,+1.43305227e-01f,
-3.22490185e-02f,-1.20759048e-01f,-1.48108199e-01f,+1.05540194e-01f,-1.81982398e-01f,
-1.75977543e-01f,-1.06388897e-01f,+1.27852634e-01f,+1.54431179e-01f,+1.63504139e-01f,
-1.48398504e-01f,-4.20916751e-02f,+1.40408212e-02f,+8.61062258e-02f,+7.78098032e-02f,
+1.05575494e-01f,+1.48554713e-01f,-1.44778088e-01f,-3.38503756e-02f,+2.84827873e-03f,
+9.06033888e-02f,+7.52088905e-04f,+4.31298800e-02f,-7.00311810e-02f,+2.02830527e-02f,
+1.59531474e-01f,-8.18985179e-02f,-3.93421426e-02f,-2.81596202e-02f,-4.17427681e-02f,
+2.71504950e-02f,+2.24135041e-01f,-8.50638449e-02f,+4.59806025e-02f,+7.34980032e-02f,
-5.55017740e-02f,-2.08428606e-01f,-3.96726839e-02f,+1.65042281e-01f,-1.25876173e-01f,
+1.16912246e-01f,-7.30838329e-02f,-3.66718061e-02f,+1.34716287e-01f,+3.60508799e-03f,
+9.87139717e-02f,+2.42427066e-02f,-7.50676170e-02f,-1.64636329e-01f,+4.44843024e-02f,
-1.32003590e-01f,+2.76578605e-01f,+3.23293433e-02f,+7.92699233e-02f,-4.95014479e-03f,
-1.33427709e-01f,+1.27256379e-01f,+2.81850938e-02f,+1.03194332e-02f,+1.98826149e-01f,
-5.25434641e-03f,-1.69585999e-02f,+8.40469077e-02f,-7.53782317e-02f,+4.26597446e-02f,
+5.33042178e-02f,+1.44119143e-01f,+1.27412304e-01f,-6.93069994e-02f,-1.82635859e-01f,
+1.33989111e-01f,+7.05184564e-02f,-1.23478167e-01f,+4.93829735e-02f,+5.86011773e-03f,
+4.19544764e-02f,-1.46434894e-02f,-5.44191077e-02f,+1.13006502e-01f,-5.59124835e-02f,
+2.42373601e-01f,+1.07745364e-01f,-2.06600670e-02f,+7.19656469e-03f,+6.00055717e-02f,
+4.24189083e-02f,+1.19552292e-01f,+2.87364483e-01f,+5.57132065e-02f,-1.81091242e-02f,
-1.17401108e-01f,-4.00329009e-02f,+1.32765099e-01f,+7.48355463e-02f,-7.77808279e-02f,
-2.32218578e-01f,-8.41942430e-03f,-5.75792342e-02f,-6.93679303e-02f,+6.12408184e-02f,
-7.97386840e-02f,+6.37496337e-02f,+1.38606429e-01f,+6.34568743e-03f,-3.80804762e-02f,
-1.21799298e-01f,+2.17985824e-01f,-5.82040697e-02f,+7.55575299e-02f,+1.34854361e-01f,
+1.47553056e-01f,-4.61042114e-02f,-3.12648565e-02f,+4.67880182e-02f,-1.37604520e-01f,
+3.02336007e-01f,-5.70253022e-02f,-2.76041050e-02f,+2.01259315e-01f,+1.21640250e-01f,
+1.97863393e-02f,-1.16335660e-01f,-5.29635064e-02f,-5.45964204e-02f,+3.38870138e-02f,
+2.03937992e-01f,-2.42536329e-02f,+1.71121851e-01f,-4.73729223e-02f,-3.92532609e-02f,
-5.61482869e-02f,+8.42539072e-02f,-2.06215158e-01f,-2.01237071e-02f,-2.76331082e-02f,
+6.23723641e-02f,+1.76467821e-01f,+7.18060061e-02f,-2.29083687e-01f,+1.55786097e-01f,
-5.21859787e-02f,+7.12474361e-02f,-4.12244648e-02f,+4.25548665e-02f,+2.20407337e-01f,
-5.58623075e-02f,-8.17611739e-02f,+1.32494822e-01f,-4.17934321e-02f,+5.14967218e-02f,
+1.30109951e-01f,-5.65816499e-02f,-1.06602982e-01f,+4.34249826e-02f,-9.95901302e-02f,
+5.32966927e-02f,+2.44974419e-02f,-1.01246245e-01f,-4.93715219e-02f,+2.39500962e-02f,
-1.47591606e-02f,-8.00757855e-03f,+4.72899899e-02f,-1.50466323e-01f,-8.04462433e-02f,
-4.18644957e-03f,+1.58322677e-01f,-1.03752175e-03f,+1.38689891e-01f,-5.81728481e-02f,
+1.13998558e-02f,-8.05059448e-02f,-3.84364612e-02f,-4.63264703e-04f,-1.17083959e-01f,
-1.45914836e-03f,-3.30010056e-02f,+2.86332387e-02f,-6.30817516e-03f,+1.66592672e-01f,
-4.00057100e-02f,+8.67725983e-02f,+6.86044693e-02f,+2.98397131e-02f,+7.69240111e-02f,
+1.55726001e-01f,+1.45177795e-02f,+9.12738666e-02f,+1.19170643e-01f,+8.40093940e-02f,
+7.27983331e-03f,+4.25533541e-02f,+2.01494083e-01f,+9.53907669e-02f,+1.33583426e-01f,
+1.14023037e-01f,+7.06789270e-03f,-1.06079131e-01f,+1.23106837e-01f,-6.54665232e-02f,
+1.23016864e-01f,+2.23879367e-02f,+1.16793243e-02f,+1.16835162e-01f,-2.41697077e-02f,
-1.32981157e-02f,+1.29926950e-01f,-1.92625925e-01f,+4.77315020e-03f,-5.35319978e-03f,
+1.05692130e-02f,-9.64493528e-02f,+1.09976895e-01f,+1.38281226e-01f,-5.41409254e-02f,
+3.23623084e-02f,-8.40214118e-02f,+1.40673695e-02f,-4.49122079e-02f,-3.69988978e-02f,
+4.93625700e-02f,-6.17268719e-02f,-1.01930194e-01f,+4.00810838e-02f,+8.75743851e-02f,
-2.55294573e-02f,-1.74675718e-01f,+9.45819169e-03f,-1.24036424e-01f,+2.92725787e-02f,
+7.81473890e-02f,-1.36334989e-02f,-3.04115657e-02f,-1.98726580e-01f,+1.12528026e-01f,
+9.27430689e-02f,-6.73431307e-02f,+7.16221035e-02f,-6.23126477e-02f,-1.06938787e-01f,
+1.41641662e-01f,+3.46018411e-02f,-9.26209334e-03f,+7.39657953e-02f,-7.49256238e-02f,
-3.93156521e-03f,+1.13256864e-01f,+2.14007616e-01f,+1.01935066e-01f,+1.09506182e-01f,
+2.87191980e-02f,-1.58214569e-02f,+4.91542742e-02f,+2.43755355e-02f,-8.04976821e-02f,
-3.67439128e-02f,-1.28276631e-01f,-6.40769899e-02f,-1.75089240e-02f,-1.42167686e-02f,
-7.50263110e-02f,-6.04980588e-02f,-1.00189976e-01f,-7.04514012e-02f,-7.24396855e-02f,
-2.33611725e-02f,-1.57359261e-02f,-7.55938888e-02f,-1.02887273e-01f,+1.57502070e-02f,
-1.21421460e-02f,+1.04526713e-01f,-1.20038643e-01f,-8.72736424e-02f,-8.74561667e-02f,
-3.66855413e-02f,-1.59772730e-03f,+7.32275322e-02f,-6.27463758e-02f,-8.38156492e-02f,
-8.09685513e-02f,-2.75222883e-02f,+1.14515712e-02f,-7.50029981e-02f,+4.25536418e-03f,
+1.50362387e-01f,+4.87671308e-02f,+1.69125490e-03f,+1.10456325e-01f,-1.17747001e-02f,
+4.43025827e-02f,-2.63548885e-02f,-9.91655886e-02f,-4.15730029e-02f,+1.33590266e-01f,
+7.65102403e-03f,+1.31530732e-01f,-7.36022019e-04f,+1.80042125e-02f,+6.80671260e-03f,
-7.48360157e-02f,+7.76298121e-02f,+7.15698451e-02f,-6.46906644e-02f,-1.18900821e-01f,
+1.05845071e-01f,-5.37629016e-02f,+6.54006493e-04f,+4.77937656e-03f,+1.75209850e-01f,
+2.21848227e-02f,+4.48230654e-02f,+1.95385948e-01f,+2.00581849e-01f,+7.35925278e-03f,
+1.98832471e-02f,+7.46793672e-02f,+9.57239345e-02f,+2.89377831e-02f,+9.01693851e-02f,
+6.05047047e-02f,-1.14863859e-02f,+3.15187544e-01f,+2.24854276e-01f,+2.80346349e-02f,
-1.12846926e-01f,+1.59786463e-01f,+4.18203175e-02f,+9.47589576e-02f,+2.11760864e-01f,
+6.02409728e-02f,+1.70542195e-01f,+3.49552110e-02f,-6.80278614e-02f,+1.19086523e-02f,
-1.19633310e-01f,+2.27783725e-01f,+2.06180755e-02f,+5.46650738e-02f,-6.17594682e-02f,
+3.37441415e-02f,+5.85195906e-02f,-1.05442237e-02f,+1.35711014e-01f,+5.76003105e-04f,
+3.91103849e-02f,-1.08933762e-01f,-1.92084432e-01f,+1.08364932e-01f,-4.81609069e-02f,
-1.67944301e-02f,-1.40459359e-01f,+4.71252576e-02f,-9.84655768e-02f,-1.26685336e-01f,
+6.06255829e-02f,-8.58543590e-02f,+4.93653938e-02f,+2.00632498e-01f,-1.13610849e-01f,
-1.11878358e-01f,-1.08174182e-01f,+1.11284778e-01f,+1.56919509e-01f,-1.64592683e-01f,
+7.28491170e-04f,+3.05649564e-02f,-2.96704601e-02f,+9.16392356e-02f,-4.08760644e-02f,
-1.24347173e-01f,+3.26969288e-02f,-9.50676873e-02f,-2.00912431e-02f,+2.20476821e-01f,
+1.59274578e-01f,-5.34713417e-02f,-5.99672161e-02f,+1.13113433e-01f,-3.55167091e-02f,
+3.82509977e-02f,+3.87415709e-03f,-1.58300698e-02f,+4.03513759e-02f,-1.95220053e-01f,
-1.80780530e-01f,-1.20630175e-01f,+6.68386742e-02f,+7.39896344e-03f,-5.18462248e-02f,
-4.83230911e-02f,+2.98576858e-02f,-4.31062020e-02f,+7.21509457e-02f,-1.85943902e-01f,
-1.62035450e-01f,-4.32463922e-02f,+7.05666319e-02f,+5.89372367e-02f,+7.86102936e-02f,
-6.28499985e-02f,-4.56588529e-02f,-1.44651011e-01f,-1.36393309e-01f,+6.38893060e-03f,
+1.26423225e-01f,+8.25253502e-02f,-1.60544634e-01f,-8.68173130e-03f,+7.12106600e-02f,
+9.11298469e-02f,-7.22897351e-02f,-9.54097584e-02f,+9.05630961e-02f,-9.53865424e-02f,
+9.44195315e-02f,+6.95269033e-02f,+1.09519608e-01f,-1.36842933e-02f,-5.74299246e-02f,
-1.21208787e-01f,+5.84285222e-02f,+1.44879282e-01f,-5.66707402e-02f,+1.58073485e-01f,
+8.62511396e-02f,-4.64707194e-03f,+1.57894716e-02f,-1.34956479e-01f,-1.21866778e-01f,
+6.15093373e-02f,+1.00348242e-01f,-1.38990626e-01f,+1.68522056e-02f,+2.62884665e-02f,
+5.57334460e-02f,-7.73198009e-02f,+8.46103430e-02f,-2.30416730e-02f,-4.53815944e-02f,
+2.28798091e-01f,+2.74062127e-01f,+4.52353023e-02f,-2.51604542e-02f,+4.55360562e-02f,
+1.80825636e-01f,+5.14540970e-02f,+3.05176787e-02f,+1.38829842e-01f,+1.27412996e-03f,
+1.74539983e-01f,+1.59687579e-01f,+5.01055457e-02f,-2.12437380e-02f,+1.86169356e-01f,
-7.21783563e-02f,+1.04208093e-03f,+8.36741924e-02f,-8.30863416e-02f,+2.17007529e-02f,
+1.86167825e-02f,-1.10996619e-01f,-5.05946502e-02f,-1.17975511e-01f,+1.83582142e-01f,
-9.65871662e-03f,+1.00364819e-01f,+1.05275191e-01f,+1.08869314e-01f,+1.50206700e-01f,
+2.36128584e-01f,+6.59750849e-02f,-1.31293312e-01f,+1.38856277e-01f,-1.44563206e-02f,
-1.10549510e-01f,+2.36157268e-01f,+1.05324976e-01f,-9.10467356e-02f,-7.74370953e-02f,
+7.81784728e-02f,-1.43199965e-01f,-7.38675594e-02f,+8.09176415e-02f,-8.76903757e-02f,
+2.69486532e-02f,+2.81811863e-01f,-1.27784997e-01f,-1.14248723e-01f,-9.84607935e-02f,
+4.76253256e-02f,+2.27962732e-01f,-1.65696323e-01f,+1.47429362e-01f,+1.41681448e-01f,
+9.04600099e-02f,+6.05577193e-02f,-3.68870944e-02f,-1.29386410e-01f,-1.01176992e-01f,
-9.87112522e-02f,-5.96466437e-02f,+1.49844110e-01f,+2.03383654e-01f,-2.29654722e-02f,
-1.23111539e-01f,+6.48114607e-02f,-1.04348220e-01f,-7.19890296e-02f,+1.98847070e-01f,
+4.13872264e-02f,+2.44360447e-01f,-1.40308574e-01f,-1.09742336e-01f,-2.21390590e-01f,
+4.87662442e-02f,-7.06400536e-03f,-1.33158550e-01f,-5.68663189e-03f,-7.98320174e-02f,
+1.07623950e-01f,-6.57314435e-03f,-1.51900232e-01f,-8.27495232e-02f,-1.59716606e-02f,
-2.99491100e-02f,+1.25247687e-01f,-1.01141907e-01f,-6.99566305e-02f,-5.97731620e-02f,
-8.42948407e-02f,-7.60241672e-02f,+1.47322282e-01f,+9.75863729e-03f,+7.59430900e-02f,
-1.09422870e-01f,+9.26446468e-02f,+2.57900625e-01f,+8.22228119e-02f,+2.94398367e-02f,
+4.69354279e-02f,+2.11851913e-02f,-6.91858828e-02f,+2.76619881e-01f,+6.16138540e-02f,
-1.25028426e-02f,+8.19646046e-02f,-1.61916196e-01f,-2.14984506e-01f,+1.16863944e-01f,
+6.41152114e-02f,-5.38010970e-02f,+1.83890656e-01f,-2.11584065e-02f,-3.59544232e-02f,
+2.78059822e-02f,-3.59321609e-02f,-7.51391277e-02f,-7.62806684e-02f,-2.96224244e-02f,
-4.82159061e-03f,-1.63889691e-01f,+3.44515182e-02f,+5.72313666e-02f,-6.88143298e-02f,
+1.10673338e-01f,-1.06882863e-01f,-1.49441347e-01f,+7.30486810e-02f,+9.58099216e-02f,
-3.05347964e-02f,+1.96694816e-03f,-7.48402476e-02f,-1.52727822e-02f,+9.04035643e-02f,
